digraph Tree {
node [shape=box, style="rounded", color="black", fontname=helvetica] ;
edge [fontname=helvetica] ;
0 [label="rain <= 1702.0\ngini = 0.5\nsamples = 3346\nvalue = [2599, 2613]"] ;
1 [label="rain <= 546.5\ngini = 0.5\nsamples = 2690\nvalue = [2506, 1685]"] ;
0 -> 1 [labeldistance=2.5, labelangle=45, headlabel="True"] ;
2 [label="rain <= 13.5\ngini = 0.5\nsamples = 1854\nvalue = [1886, 1019]"] ;
1 -> 2 ;
3 [label="rain <= 12.5\ngini = 0.5\nsamples = 72\nvalue = [56, 56]"] ;
2 -> 3 ;
4 [label="rain <= 11.5\ngini = 0.5\nsamples = 55\nvalue = [49, 37]"] ;
3 -> 4 ;
5 [label="gini = 0.5\nsamples = 28\nvalue = [24, 24]"] ;
4 -> 5 ;
6 [label="gini = 0.5\nsamples = 27\nvalue = [25, 13]"] ;
4 -> 6 ;
7 [label="gini = 0.4\nsamples = 17\nvalue = [7, 19]"] ;
3 -> 7 ;
8 [label="rain <= 95.5\ngini = 0.5\nsamples = 1782\nvalue = [1830, 963]"] ;
2 -> 8 ;
9 [label="rain <= 87.5\ngini = 0.4\nsamples = 680\nvalue = [738, 328]"] ;
8 -> 9 ;
10 [label="rain <= 78.5\ngini = 0.4\nsamples = 645\nvalue = [688, 319]"] ;
9 -> 10 ;
11 [label="rain <= 35.5\ngini = 0.4\nsamples = 589\nvalue = [644, 282]"] ;
10 -> 11 ;
12 [label="rain <= 34.5\ngini = 0.5\nsamples = 291\nvalue = [297, 159]"] ;
11 -> 12 ;
13 [label="rain <= 30.5\ngini = 0.4\nsamples = 279\nvalue = [287, 144]"] ;
12 -> 13 ;
14 [label="rain <= 17.5\ngini = 0.5\nsamples = 243\nvalue = [248, 133]"] ;
13 -> 14 ;
15 [label="rain <= 15.5\ngini = 0.4\nsamples = 59\nvalue = [69, 24]"] ;
14 -> 15 ;
16 [label="rain <= 14.5\ngini = 0.4\nsamples = 31\nvalue = [34, 13]"] ;
15 -> 16 ;
17 [label="gini = 0.4\nsamples = 21\nvalue = [24, 8]"] ;
16 -> 17 ;
18 [label="gini = 0.4\nsamples = 10\nvalue = [10, 5]"] ;
16 -> 18 ;
19 [label="rain <= 16.5\ngini = 0.4\nsamples = 28\nvalue = [35, 11]"] ;
15 -> 19 ;
20 [label="gini = 0.4\nsamples = 13\nvalue = [20, 6]"] ;
19 -> 20 ;
21 [label="gini = 0.4\nsamples = 15\nvalue = [15, 5]"] ;
19 -> 21 ;
22 [label="rain <= 20.5\ngini = 0.5\nsamples = 184\nvalue = [179, 109]"] ;
14 -> 22 ;
23 [label="rain <= 19.5\ngini = 0.5\nsamples = 65\nvalue = [60, 46]"] ;
22 -> 23 ;
24 [label="rain <= 18.5\ngini = 0.5\nsamples = 45\nvalue = [42, 34]"] ;
23 -> 24 ;
25 [label="gini = 0.5\nsamples = 20\nvalue = [20, 16]"] ;
24 -> 25 ;
26 [label="gini = 0.5\nsamples = 25\nvalue = [22, 18]"] ;
24 -> 26 ;
27 [label="gini = 0.5\nsamples = 20\nvalue = [18, 12]"] ;
23 -> 27 ;
28 [label="rain <= 24.5\ngini = 0.5\nsamples = 119\nvalue = [119, 63]"] ;
22 -> 28 ;
29 [label="rain <= 23.5\ngini = 0.4\nsamples = 52\nvalue = [61, 22]"] ;
28 -> 29 ;
30 [label="rain <= 21.5\ngini = 0.4\nsamples = 39\nvalue = [44, 17]"] ;
29 -> 30 ;
31 [label="gini = 0.4\nsamples = 13\nvalue = [14, 5]"] ;
30 -> 31 ;
32 [label="rain <= 22.5\ngini = 0.4\nsamples = 26\nvalue = [30, 12]"] ;
30 -> 32 ;
33 [label="gini = 0.4\nsamples = 11\nvalue = [12, 5]"] ;
32 -> 33 ;
34 [label="gini = 0.4\nsamples = 15\nvalue = [18, 7]"] ;
32 -> 34 ;
35 [label="gini = 0.4\nsamples = 13\nvalue = [17, 5]"] ;
29 -> 35 ;
36 [label="rain <= 29.5\ngini = 0.5\nsamples = 67\nvalue = [58, 41]"] ;
28 -> 36 ;
37 [label="rain <= 27.5\ngini = 0.5\nsamples = 53\nvalue = [47, 30]"] ;
36 -> 37 ;
38 [label="rain <= 26.5\ngini = 0.5\nsamples = 36\nvalue = [31, 24]"] ;
37 -> 38 ;
39 [label="rain <= 25.5\ngini = 0.5\nsamples = 23\nvalue = [19, 13]"] ;
38 -> 39 ;
40 [label="gini = 0.5\nsamples = 7\nvalue = [4, 4]"] ;
39 -> 40 ;
41 [label="gini = 0.5\nsamples = 16\nvalue = [15, 9]"] ;
39 -> 41 ;
42 [label="gini = 0.5\nsamples = 13\nvalue = [12, 11]"] ;
38 -> 42 ;
43 [label="rain <= 28.5\ngini = 0.4\nsamples = 17\nvalue = [16, 6]"] ;
37 -> 43 ;
44 [label="gini = 0.4\nsamples = 6\nvalue = [6, 2]"] ;
43 -> 44 ;
45 [label="gini = 0.4\nsamples = 11\nvalue = [10, 4]"] ;
43 -> 45 ;
46 [label="gini = 0.5\nsamples = 14\nvalue = [11, 11]"] ;
36 -> 46 ;
47 [label="rain <= 32.5\ngini = 0.3\nsamples = 36\nvalue = [39, 11]"] ;
13 -> 47 ;
48 [label="rain <= 31.5\ngini = 0.2\nsamples = 17\nvalue = [20, 3]"] ;
47 -> 48 ;
49 [label="gini = 0.2\nsamples = 7\nvalue = [8, 1]"] ;
48 -> 49 ;
50 [label="gini = 0.2\nsamples = 10\nvalue = [12, 2]"] ;
48 -> 50 ;
51 [label="rain <= 33.5\ngini = 0.4\nsamples = 19\nvalue = [19, 8]"] ;
47 -> 51 ;
52 [label="gini = 0.4\nsamples = 12\nvalue = [12, 6]"] ;
51 -> 52 ;
53 [label="gini = 0.3\nsamples = 7\nvalue = [7, 2]"] ;
51 -> 53 ;
54 [label="gini = 0.5\nsamples = 12\nvalue = [10, 15]"] ;
12 -> 54 ;
55 [label="rain <= 39.5\ngini = 0.4\nsamples = 298\nvalue = [347, 123]"] ;
11 -> 55 ;
56 [label="rain <= 36.5\ngini = 0.2\nsamples = 37\nvalue = [53, 9]"] ;
55 -> 56 ;
57 [label="gini = 0.1\nsamples = 10\nvalue = [15, 1]"] ;
56 -> 57 ;
58 [label="rain <= 37.5\ngini = 0.3\nsamples = 27\nvalue = [38, 8]"] ;
56 -> 58 ;
59 [label="gini = 0.3\nsamples = 7\nvalue = [11, 2]"] ;
58 -> 59 ;
60 [label="rain <= 38.5\ngini = 0.3\nsamples = 20\nvalue = [27, 6]"] ;
58 -> 60 ;
61 [label="gini = 0.3\nsamples = 13\nvalue = [16, 4]"] ;
60 -> 61 ;
62 [label="gini = 0.3\nsamples = 7\nvalue = [11, 2]"] ;
60 -> 62 ;
63 [label="rain <= 49.5\ngini = 0.4\nsamples = 261\nvalue = [294, 114]"] ;
55 -> 63 ;
64 [label="rain <= 42.5\ngini = 0.5\nsamples = 90\nvalue = [91, 50]"] ;
63 -> 64 ;
65 [label="rain <= 40.5\ngini = 0.4\nsamples = 36\nvalue = [39, 15]"] ;
64 -> 65 ;
66 [label="gini = 0.5\nsamples = 16\nvalue = [13, 12]"] ;
65 -> 66 ;
67 [label="rain <= 41.5\ngini = 0.2\nsamples = 20\nvalue = [26, 3]"] ;
65 -> 67 ;
68 [label="gini = 0.1\nsamples = 11\nvalue = [17, 1]"] ;
67 -> 68 ;
69 [label="gini = 0.3\nsamples = 9\nvalue = [9, 2]"] ;
67 -> 69 ;
70 [label="rain <= 48.5\ngini = 0.5\nsamples = 54\nvalue = [52, 35]"] ;
64 -> 70 ;
71 [label="rain <= 47.5\ngini = 0.5\nsamples = 46\nvalue = [45, 28]"] ;
70 -> 71 ;
72 [label="rain <= 45.5\ngini = 0.5\nsamples = 40\nvalue = [36, 27]"] ;
71 -> 72 ;
73 [label="rain <= 44.5\ngini = 0.5\nsamples = 30\nvalue = [29, 19]"] ;
72 -> 73 ;
74 [label="rain <= 43.5\ngini = 0.5\nsamples = 20\nvalue = [20, 14]"] ;
73 -> 74 ;
75 [label="gini = 0.5\nsamples = 10\nvalue = [10, 6]"] ;
74 -> 75 ;
76 [label="gini = 0.5\nsamples = 10\nvalue = [10, 8]"] ;
74 -> 76 ;
77 [label="gini = 0.5\nsamples = 10\nvalue = [9, 5]"] ;
73 -> 77 ;
78 [label="rain <= 46.5\ngini = 0.5\nsamples = 10\nvalue = [7, 8]"] ;
72 -> 78 ;
79 [label="gini = 0.4\nsamples = 4\nvalue = [2, 4]"] ;
78 -> 79 ;
80 [label="gini = 0.5\nsamples = 6\nvalue = [5, 4]"] ;
78 -> 80 ;
81 [label="gini = 0.2\nsamples = 6\nvalue = [9, 1]"] ;
71 -> 81 ;
82 [label="gini = 0.5\nsamples = 8\nvalue = [7, 7]"] ;
70 -> 82 ;
83 [label="rain <= 56.5\ngini = 0.4\nsamples = 171\nvalue = [203, 64]"] ;
63 -> 83 ;
84 [label="rain <= 51.5\ngini = 0.2\nsamples = 44\nvalue = [71, 8]"] ;
83 -> 84 ;
85 [label="rain <= 50.5\ngini = 0.4\nsamples = 13\nvalue = [11, 4]"] ;
84 -> 85 ;
86 [label="gini = 0.2\nsamples = 6\nvalue = [7, 1]"] ;
85 -> 86 ;
87 [label="gini = 0.5\nsamples = 7\nvalue = [4, 3]"] ;
85 -> 87 ;
88 [label="rain <= 52.5\ngini = 0.1\nsamples = 31\nvalue = [60, 4]"] ;
84 -> 88 ;
89 [label="gini = 0.2\nsamples = 12\nvalue = [21, 3]"] ;
88 -> 89 ;
90 [label="rain <= 54.5\ngini = 0.0\nsamples = 19\nvalue = [39, 1]"] ;
88 -> 90 ;
91 [label="gini = 0.0\nsamples = 11\nvalue = [27, 0]"] ;
90 -> 91 ;
92 [label="rain <= 55.5\ngini = 0.1\nsamples = 8\nvalue = [12, 1]"] ;
90 -> 92 ;
93 [label="gini = 0.3\nsamples = 4\nvalue = [4, 1]"] ;
92 -> 93 ;
94 [label="gini = 0.0\nsamples = 4\nvalue = [8, 0]"] ;
92 -> 94 ;
95 [label="rain <= 57.5\ngini = 0.4\nsamples = 127\nvalue = [132, 56]"] ;
83 -> 95 ;
96 [label="gini = 0.3\nsamples = 7\nvalue = [2, 8]"] ;
95 -> 96 ;
97 [label="rain <= 61.5\ngini = 0.4\nsamples = 120\nvalue = [130, 48]"] ;
95 -> 97 ;
98 [label="rain <= 58.5\ngini = 0.2\nsamples = 20\nvalue = [23, 3]"] ;
97 -> 98 ;
99 [label="gini = 0.5\nsamples = 8\nvalue = [5, 3]"] ;
98 -> 99 ;
100 [label="gini = 0.0\nsamples = 12\nvalue = [18, 0]"] ;
98 -> 100 ;
101 [label="rain <= 75.5\ngini = 0.4\nsamples = 100\nvalue = [107, 45]"] ;
97 -> 101 ;
102 [label="rain <= 71.5\ngini = 0.4\nsamples = 84\nvalue = [87, 41]"] ;
101 -> 102 ;
103 [label="rain <= 64.5\ngini = 0.4\nsamples = 62\nvalue = [70, 25]"] ;
102 -> 103 ;
104 [label="rain <= 63.5\ngini = 0.5\nsamples = 13\nvalue = [11, 8]"] ;
103 -> 104 ;
105 [label="rain <= 62.5\ngini = 0.4\nsamples = 9\nvalue = [9, 4]"] ;
104 -> 105 ;
106 [label="gini = 0.4\nsamples = 3\nvalue = [3, 1]"] ;
105 -> 106 ;
107 [label="gini = 0.4\nsamples = 6\nvalue = [6, 3]"] ;
105 -> 107 ;
108 [label="gini = 0.4\nsamples = 4\nvalue = [2, 4]"] ;
104 -> 108 ;
109 [label="rain <= 65.5\ngini = 0.3\nsamples = 49\nvalue = [59, 17]"] ;
103 -> 109 ;
110 [label="gini = 0.0\nsamples = 6\nvalue = [12, 0]"] ;
109 -> 110 ;
111 [label="rain <= 66.5\ngini = 0.4\nsamples = 43\nvalue = [47, 17]"] ;
109 -> 111 ;
112 [label="gini = 0.5\nsamples = 5\nvalue = [4, 6]"] ;
111 -> 112 ;
113 [label="rain <= 70.5\ngini = 0.3\nsamples = 38\nvalue = [43, 11]"] ;
111 -> 113 ;
114 [label="rain <= 69.5\ngini = 0.4\nsamples = 32\nvalue = [32, 10]"] ;
113 -> 114 ;
115 [label="rain <= 67.5\ngini = 0.3\nsamples = 21\nvalue = [21, 4]"] ;
114 -> 115 ;
116 [label="gini = 0.4\nsamples = 12\nvalue = [10, 4]"] ;
115 -> 116 ;
117 [label="gini = 0.0\nsamples = 9\nvalue = [11, 0]"] ;
115 -> 117 ;
118 [label="gini = 0.5\nsamples = 11\nvalue = [11, 6]"] ;
114 -> 118 ;
119 [label="gini = 0.2\nsamples = 6\nvalue = [11, 1]"] ;
113 -> 119 ;
120 [label="rain <= 74.5\ngini = 0.5\nsamples = 22\nvalue = [17, 16]"] ;
102 -> 120 ;
121 [label="rain <= 72.5\ngini = 0.5\nsamples = 16\nvalue = [13, 9]"] ;
120 -> 121 ;
122 [label="gini = 0.5\nsamples = 4\nvalue = [3, 4]"] ;
121 -> 122 ;
123 [label="rain <= 73.5\ngini = 0.4\nsamples = 12\nvalue = [10, 5]"] ;
121 -> 123 ;
124 [label="gini = 0.4\nsamples = 4\nvalue = [3, 1]"] ;
123 -> 124 ;
125 [label="gini = 0.5\nsamples = 8\nvalue = [7, 4]"] ;
123 -> 125 ;
126 [label="gini = 0.5\nsamples = 6\nvalue = [4, 7]"] ;
120 -> 126 ;
127 [label="rain <= 77.5\ngini = 0.3\nsamples = 16\nvalue = [20, 4]"] ;
101 -> 127 ;
128 [label="rain <= 76.5\ngini = 0.3\nsamples = 11\nvalue = [16, 3]"] ;
127 -> 128 ;
129 [label="gini = 0.2\nsamples = 4\nvalue = [6, 1]"] ;
128 -> 129 ;
130 [label="gini = 0.3\nsamples = 7\nvalue = [10, 2]"] ;
128 -> 130 ;
131 [label="gini = 0.3\nsamples = 5\nvalue = [4, 1]"] ;
127 -> 131 ;
132 [label="rain <= 83.5\ngini = 0.5\nsamples = 56\nvalue = [44, 37]"] ;
10 -> 132 ;
133 [label="rain <= 81.5\ngini = 0.5\nsamples = 30\nvalue = [18, 27]"] ;
132 -> 133 ;
134 [label="rain <= 80.5\ngini = 0.4\nsamples = 18\nvalue = [8, 17]"] ;
133 -> 134 ;
135 [label="rain <= 79.5\ngini = 0.5\nsamples = 15\nvalue = [8, 13]"] ;
134 -> 135 ;
136 [label="gini = 0.5\nsamples = 6\nvalue = [4, 4]"] ;
135 -> 136 ;
137 [label="gini = 0.4\nsamples = 9\nvalue = [4, 9]"] ;
135 -> 137 ;
138 [label="gini = 0.0\nsamples = 3\nvalue = [0, 4]"] ;
134 -> 138 ;
139 [label="rain <= 82.5\ngini = 0.5\nsamples = 12\nvalue = [10, 10]"] ;
133 -> 139 ;
140 [label="gini = 0.5\nsamples = 4\nvalue = [3, 2]"] ;
139 -> 140 ;
141 [label="gini = 0.5\nsamples = 8\nvalue = [7, 8]"] ;
139 -> 141 ;
142 [label="rain <= 84.5\ngini = 0.4\nsamples = 26\nvalue = [26, 10]"] ;
132 -> 142 ;
143 [label="gini = 0.2\nsamples = 7\nvalue = [9, 1]"] ;
142 -> 143 ;
144 [label="rain <= 85.5\ngini = 0.5\nsamples = 19\nvalue = [17, 9]"] ;
142 -> 144 ;
145 [label="gini = 0.5\nsamples = 9\nvalue = [8, 6]"] ;
144 -> 145 ;
146 [label="rain <= 86.5\ngini = 0.4\nsamples = 10\nvalue = [9, 3]"] ;
144 -> 146 ;
147 [label="gini = 0.0\nsamples = 2\nvalue = [2, 0]"] ;
146 -> 147 ;
148 [label="gini = 0.4\nsamples = 8\nvalue = [7, 3]"] ;
146 -> 148 ;
149 [label="rain <= 89.5\ngini = 0.3\nsamples = 35\nvalue = [50, 9]"] ;
9 -> 149 ;
150 [label="rain <= 88.5\ngini = 0.1\nsamples = 11\nvalue = [19, 1]"] ;
149 -> 150 ;
151 [label="gini = 0.2\nsamples = 6\nvalue = [9, 1]"] ;
150 -> 151 ;
152 [label="gini = 0.0\nsamples = 5\nvalue = [10, 0]"] ;
150 -> 152 ;
153 [label="rain <= 92.5\ngini = 0.3\nsamples = 24\nvalue = [31, 8]"] ;
149 -> 153 ;
154 [label="rain <= 91.5\ngini = 0.5\nsamples = 13\nvalue = [12, 7]"] ;
153 -> 154 ;
155 [label="rain <= 90.5\ngini = 0.4\nsamples = 9\nvalue = [10, 4]"] ;
154 -> 155 ;
156 [label="gini = 0.4\nsamples = 5\nvalue = [6, 2]"] ;
155 -> 156 ;
157 [label="gini = 0.4\nsamples = 4\nvalue = [4, 2]"] ;
155 -> 157 ;
158 [label="gini = 0.5\nsamples = 4\nvalue = [2, 3]"] ;
154 -> 158 ;
159 [label="rain <= 93.5\ngini = 0.1\nsamples = 11\nvalue = [19, 1]"] ;
153 -> 159 ;
160 [label="gini = 0.0\nsamples = 4\nvalue = [9, 0]"] ;
159 -> 160 ;
161 [label="rain <= 94.5\ngini = 0.2\nsamples = 7\nvalue = [10, 1]"] ;
159 -> 161 ;
162 [label="gini = 0.2\nsamples = 5\nvalue = [7, 1]"] ;
161 -> 162 ;
163 [label="gini = 0.0\nsamples = 2\nvalue = [3, 0]"] ;
161 -> 163 ;
164 [label="rain <= 127.5\ngini = 0.5\nsamples = 1102\nvalue = [1092, 635]"] ;
8 -> 164 ;
165 [label="rain <= 124.5\ngini = 0.5\nsamples = 141\nvalue = [119, 107]"] ;
164 -> 165 ;
166 [label="rain <= 100.5\ngini = 0.5\nsamples = 118\nvalue = [109, 80]"] ;
165 -> 166 ;
167 [label="rain <= 96.5\ngini = 0.5\nsamples = 23\nvalue = [13, 23]"] ;
166 -> 167 ;
168 [label="gini = 0.5\nsamples = 5\nvalue = [4, 4]"] ;
167 -> 168 ;
169 [label="rain <= 97.5\ngini = 0.4\nsamples = 18\nvalue = [9, 19]"] ;
167 -> 169 ;
170 [label="gini = 0.3\nsamples = 4\nvalue = [1, 5]"] ;
169 -> 170 ;
171 [label="rain <= 98.5\ngini = 0.5\nsamples = 14\nvalue = [8, 14]"] ;
169 -> 171 ;
172 [label="gini = 0.5\nsamples = 3\nvalue = [2, 2]"] ;
171 -> 172 ;
173 [label="rain <= 99.5\ngini = 0.4\nsamples = 11\nvalue = [6, 12]"] ;
171 -> 173 ;
174 [label="gini = 0.5\nsamples = 6\nvalue = [4, 7]"] ;
173 -> 174 ;
175 [label="gini = 0.4\nsamples = 5\nvalue = [2, 5]"] ;
173 -> 175 ;
176 [label="rain <= 102.5\ngini = 0.5\nsamples = 95\nvalue = [96, 57]"] ;
166 -> 176 ;
177 [label="gini = 0.0\nsamples = 5\nvalue = [9, 0]"] ;
176 -> 177 ;
178 [label="rain <= 111.5\ngini = 0.5\nsamples = 90\nvalue = [87, 57]"] ;
176 -> 178 ;
179 [label="rain <= 110.5\ngini = 0.4\nsamples = 37\nvalue = [42, 20]"] ;
178 -> 179 ;
180 [label="rain <= 106.5\ngini = 0.5\nsamples = 30\nvalue = [30, 18]"] ;
179 -> 180 ;
181 [label="rain <= 103.5\ngini = 0.4\nsamples = 15\nvalue = [18, 7]"] ;
180 -> 181 ;
182 [label="gini = 0.5\nsamples = 4\nvalue = [3, 3]"] ;
181 -> 182 ;
183 [label="rain <= 105.5\ngini = 0.3\nsamples = 11\nvalue = [15, 4]"] ;
181 -> 183 ;
184 [label="rain <= 104.5\ngini = 0.3\nsamples = 8\nvalue = [12, 3]"] ;
183 -> 184 ;
185 [label="gini = 0.3\nsamples = 5\nvalue = [8, 2]"] ;
184 -> 185 ;
186 [label="gini = 0.3\nsamples = 3\nvalue = [4, 1]"] ;
184 -> 186 ;
187 [label="gini = 0.4\nsamples = 3\nvalue = [3, 1]"] ;
183 -> 187 ;
188 [label="rain <= 108.5\ngini = 0.5\nsamples = 15\nvalue = [12, 11]"] ;
180 -> 188 ;
189 [label="rain <= 107.5\ngini = 0.4\nsamples = 6\nvalue = [3, 6]"] ;
188 -> 189 ;
190 [label="gini = 0.4\nsamples = 3\nvalue = [1, 3]"] ;
189 -> 190 ;
191 [label="gini = 0.5\nsamples = 3\nvalue = [2, 3]"] ;
189 -> 191 ;
192 [label="rain <= 109.5\ngini = 0.5\nsamples = 9\nvalue = [9, 5]"] ;
188 -> 192 ;
193 [label="gini = 0.5\nsamples = 3\nvalue = [3, 2]"] ;
192 -> 193 ;
194 [label="gini = 0.4\nsamples = 6\nvalue = [6, 3]"] ;
192 -> 194 ;
195 [label="gini = 0.2\nsamples = 7\nvalue = [12, 2]"] ;
179 -> 195 ;
196 [label="rain <= 112.5\ngini = 0.5\nsamples = 53\nvalue = [45, 37]"] ;
178 -> 196 ;
197 [label="gini = 0.2\nsamples = 8\nvalue = [1, 9]"] ;
196 -> 197 ;
198 [label="rain <= 119.5\ngini = 0.5\nsamples = 45\nvalue = [44, 28]"] ;
196 -> 198 ;
199 [label="rain <= 118.5\ngini = 0.4\nsamples = 24\nvalue = [29, 13]"] ;
198 -> 199 ;
200 [label="rain <= 113.5\ngini = 0.5\nsamples = 21\nvalue = [24, 13]"] ;
199 -> 200 ;
201 [label="gini = 0.3\nsamples = 6\nvalue = [7, 2]"] ;
200 -> 201 ;
202 [label="rain <= 114.5\ngini = 0.5\nsamples = 15\nvalue = [17, 11]"] ;
200 -> 202 ;
203 [label="gini = 0.5\nsamples = 3\nvalue = [2, 3]"] ;
202 -> 203 ;
204 [label="rain <= 115.5\ngini = 0.5\nsamples = 12\nvalue = [15, 8]"] ;
202 -> 204 ;
205 [label="gini = 0.5\nsamples = 5\nvalue = [6, 4]"] ;
204 -> 205 ;
206 [label="rain <= 116.5\ngini = 0.4\nsamples = 7\nvalue = [9, 4]"] ;
204 -> 206 ;
207 [label="gini = 0.0\nsamples = 1\nvalue = [1, 0]"] ;
206 -> 207 ;
208 [label="rain <= 117.5\ngini = 0.4\nsamples = 6\nvalue = [8, 4]"] ;
206 -> 208 ;
209 [label="gini = 0.5\nsamples = 4\nvalue = [5, 3]"] ;
208 -> 209 ;
210 [label="gini = 0.4\nsamples = 2\nvalue = [3, 1]"] ;
208 -> 210 ;
211 [label="gini = 0.0\nsamples = 3\nvalue = [5, 0]"] ;
199 -> 211 ;
212 [label="rain <= 121.5\ngini = 0.5\nsamples = 21\nvalue = [15, 15]"] ;
198 -> 212 ;
213 [label="rain <= 120.5\ngini = 0.5\nsamples = 12\nvalue = [9, 10]"] ;
212 -> 213 ;
214 [label="gini = 0.5\nsamples = 4\nvalue = [3, 3]"] ;
213 -> 214 ;
215 [label="gini = 0.5\nsamples = 8\nvalue = [6, 7]"] ;
213 -> 215 ;
216 [label="rain <= 122.5\ngini = 0.5\nsamples = 9\nvalue = [6, 5]"] ;
212 -> 216 ;
217 [label="gini = 0.5\nsamples = 3\nvalue = [3, 2]"] ;
216 -> 217 ;
218 [label="rain <= 123.5\ngini = 0.5\nsamples = 6\nvalue = [3, 3]"] ;
216 -> 218 ;
219 [label="gini = 0.5\nsamples = 4\nvalue = [2, 2]"] ;
218 -> 219 ;
220 [label="gini = 0.5\nsamples = 2\nvalue = [1, 1]"] ;
218 -> 220 ;
221 [label="rain <= 125.5\ngini = 0.4\nsamples = 23\nvalue = [10, 27]"] ;
165 -> 221 ;
222 [label="gini = 0.0\nsamples = 1\nvalue = [0, 2]"] ;
221 -> 222 ;
223 [label="rain <= 126.5\ngini = 0.4\nsamples = 22\nvalue = [10, 25]"] ;
221 -> 223 ;
224 [label="gini = 0.5\nsamples = 2\nvalue = [2, 2]"] ;
223 -> 224 ;
225 [label="gini = 0.4\nsamples = 20\nvalue = [8, 23]"] ;
223 -> 225 ;
226 [label="rain <= 363.5\ngini = 0.5\nsamples = 961\nvalue = [973, 528]"] ;
164 -> 226 ;
227 [label="rain <= 359.5\ngini = 0.4\nsamples = 638\nvalue = [667, 321]"] ;
226 -> 227 ;
228 [label="rain <= 135.5\ngini = 0.4\nsamples = 630\nvalue = [655, 321]"] ;
227 -> 228 ;
229 [label="rain <= 132.0\ngini = 0.3\nsamples = 25\nvalue = [27, 7]"] ;
228 -> 229 ;
230 [label="rain <= 130.5\ngini = 0.4\nsamples = 21\nvalue = [22, 7]"] ;
229 -> 230 ;
231 [label="rain <= 128.5\ngini = 0.3\nsamples = 15\nvalue = [17, 4]"] ;
230 -> 231 ;
232 [label="gini = 0.5\nsamples = 4\nvalue = [3, 2]"] ;
231 -> 232 ;
233 [label="rain <= 129.5\ngini = 0.2\nsamples = 11\nvalue = [14, 2]"] ;
231 -> 233 ;
234 [label="gini = 0.0\nsamples = 5\nvalue = [6, 0]"] ;
233 -> 234 ;
235 [label="gini = 0.3\nsamples = 6\nvalue = [8, 2]"] ;
233 -> 235 ;
236 [label="gini = 0.5\nsamples = 6\nvalue = [5, 3]"] ;
230 -> 236 ;
237 [label="gini = 0.0\nsamples = 4\nvalue = [5, 0]"] ;
229 -> 237 ;
238 [label="rain <= 145.5\ngini = 0.4\nsamples = 605\nvalue = [628, 314]"] ;
228 -> 238 ;
239 [label="rain <= 137.5\ngini = 0.5\nsamples = 30\nvalue = [22, 22]"] ;
238 -> 239 ;
240 [label="rain <= 136.5\ngini = 0.5\nsamples = 8\nvalue = [8, 5]"] ;
239 -> 240 ;
241 [label="gini = 0.5\nsamples = 5\nvalue = [3, 5]"] ;
240 -> 241 ;
242 [label="gini = 0.0\nsamples = 3\nvalue = [5, 0]"] ;
240 -> 242 ;
243 [label="rain <= 142.5\ngini = 0.5\nsamples = 22\nvalue = [14, 17]"] ;
239 -> 243 ;
244 [label="rain <= 141.5\ngini = 0.5\nsamples = 12\nvalue = [8, 8]"] ;
243 -> 244 ;
245 [label="rain <= 140.5\ngini = 0.5\nsamples = 11\nvalue = [7, 8]"] ;
244 -> 245 ;
246 [label="rain <= 139.0\ngini = 0.5\nsamples = 7\nvalue = [5, 5]"] ;
245 -> 246 ;
247 [label="gini = 0.5\nsamples = 5\nvalue = [4, 4]"] ;
246 -> 247 ;
248 [label="gini = 0.5\nsamples = 2\nvalue = [1, 1]"] ;
246 -> 248 ;
249 [label="gini = 0.5\nsamples = 4\nvalue = [2, 3]"] ;
245 -> 249 ;
250 [label="gini = 0.0\nsamples = 1\nvalue = [1, 0]"] ;
244 -> 250 ;
251 [label="rain <= 144.5\ngini = 0.5\nsamples = 10\nvalue = [6, 9]"] ;
243 -> 251 ;
252 [label="rain <= 143.5\ngini = 0.5\nsamples = 7\nvalue = [4, 7]"] ;
251 -> 252 ;
253 [label="gini = 0.5\nsamples = 5\nvalue = [3, 4]"] ;
252 -> 253 ;
254 [label="gini = 0.4\nsamples = 2\nvalue = [1, 3]"] ;
252 -> 254 ;
255 [label="gini = 0.5\nsamples = 3\nvalue = [2, 2]"] ;
251 -> 255 ;
256 [label="rain <= 160.5\ngini = 0.4\nsamples = 575\nvalue = [606, 292]"] ;
238 -> 256 ;
257 [label="rain <= 159.5\ngini = 0.3\nsamples = 45\nvalue = [56, 15]"] ;
256 -> 257 ;
258 [label="rain <= 158.5\ngini = 0.4\nsamples = 41\nvalue = [50, 15]"] ;
257 -> 258 ;
259 [label="rain <= 155.5\ngini = 0.3\nsamples = 38\nvalue = [48, 13]"] ;
258 -> 259 ;
260 [label="rain <= 151.5\ngini = 0.4\nsamples = 34\nvalue = [43, 13]"] ;
259 -> 260 ;
261 [label="rain <= 150.5\ngini = 0.3\nsamples = 17\nvalue = [22, 4]"] ;
260 -> 261 ;
262 [label="rain <= 147.5\ngini = 0.3\nsamples = 13\nvalue = [14, 4]"] ;
261 -> 262 ;
263 [label="rain <= 146.5\ngini = 0.4\nsamples = 6\nvalue = [4, 2]"] ;
262 -> 263 ;
264 [label="gini = 0.0\nsamples = 1\nvalue = [1, 0]"] ;
263 -> 264 ;
265 [label="gini = 0.5\nsamples = 5\nvalue = [3, 2]"] ;
263 -> 265 ;
266 [label="rain <= 149.5\ngini = 0.3\nsamples = 7\nvalue = [10, 2]"] ;
262 -> 266 ;
267 [label="gini = 0.0\nsamples = 3\nvalue = [3, 0]"] ;
266 -> 267 ;
268 [label="gini = 0.3\nsamples = 4\nvalue = [7, 2]"] ;
266 -> 268 ;
269 [label="gini = 0.0\nsamples = 4\nvalue = [8, 0]"] ;
261 -> 269 ;
270 [label="rain <= 152.5\ngini = 0.4\nsamples = 17\nvalue = [21, 9]"] ;
260 -> 270 ;
271 [label="gini = 0.5\nsamples = 4\nvalue = [3, 2]"] ;
270 -> 271 ;
272 [label="rain <= 153.5\ngini = 0.4\nsamples = 13\nvalue = [18, 7]"] ;
270 -> 272 ;
273 [label="gini = 0.4\nsamples = 7\nvalue = [12, 5]"] ;
272 -> 273 ;
274 [label="rain <= 154.5\ngini = 0.4\nsamples = 6\nvalue = [6, 2]"] ;
272 -> 274 ;
275 [label="gini = 0.4\nsamples = 3\nvalue = [3, 1]"] ;
274 -> 275 ;
276 [label="gini = 0.4\nsamples = 3\nvalue = [3, 1]"] ;
274 -> 276 ;
277 [label="gini = 0.0\nsamples = 4\nvalue = [5, 0]"] ;
259 -> 277 ;
278 [label="gini = 0.5\nsamples = 3\nvalue = [2, 2]"] ;
258 -> 278 ;
279 [label="gini = 0.0\nsamples = 4\nvalue = [6, 0]"] ;
257 -> 279 ;
280 [label="rain <= 173.5\ngini = 0.4\nsamples = 530\nvalue = [550, 277]"] ;
256 -> 280 ;
281 [label="rain <= 171.0\ngini = 0.5\nsamples = 46\nvalue = [34, 38]"] ;
280 -> 281 ;
282 [label="rain <= 169.5\ngini = 0.5\nsamples = 36\nvalue = [30, 28]"] ;
281 -> 282 ;
283 [label="rain <= 164.5\ngini = 0.5\nsamples = 34\nvalue = [28, 28]"] ;
282 -> 283 ;
284 [label="rain <= 163.5\ngini = 0.5\nsamples = 15\nvalue = [15, 11]"] ;
283 -> 284 ;
285 [label="rain <= 162.5\ngini = 0.5\nsamples = 12\nvalue = [10, 11]"] ;
284 -> 285 ;
286 [label="rain <= 161.5\ngini = 0.5\nsamples = 10\nvalue = [8, 10]"] ;
285 -> 286 ;
287 [label="gini = 0.5\nsamples = 5\nvalue = [5, 4]"] ;
286 -> 287 ;
288 [label="gini = 0.4\nsamples = 5\nvalue = [3, 6]"] ;
286 -> 288 ;
289 [label="gini = 0.4\nsamples = 2\nvalue = [2, 1]"] ;
285 -> 289 ;
290 [label="gini = 0.0\nsamples = 3\nvalue = [5, 0]"] ;
284 -> 290 ;
291 [label="rain <= 166.5\ngini = 0.5\nsamples = 19\nvalue = [13, 17]"] ;
283 -> 291 ;
292 [label="rain <= 165.5\ngini = 0.4\nsamples = 8\nvalue = [4, 9]"] ;
291 -> 292 ;
293 [label="gini = 0.4\nsamples = 2\nvalue = [1, 2]"] ;
292 -> 293 ;
294 [label="gini = 0.4\nsamples = 6\nvalue = [3, 7]"] ;
292 -> 294 ;
295 [label="rain <= 167.5\ngini = 0.5\nsamples = 11\nvalue = [9, 8]"] ;
291 -> 295 ;
296 [label="gini = 0.0\nsamples = 2\nvalue = [3, 0]"] ;
295 -> 296 ;
297 [label="rain <= 168.5\ngini = 0.5\nsamples = 9\nvalue = [6, 8]"] ;
295 -> 297 ;
298 [label="gini = 0.5\nsamples = 4\nvalue = [2, 3]"] ;
297 -> 298 ;
299 [label="gini = 0.5\nsamples = 5\nvalue = [4, 5]"] ;
297 -> 299 ;
300 [label="gini = 0.0\nsamples = 2\nvalue = [2, 0]"] ;
282 -> 300 ;
301 [label="rain <= 172.5\ngini = 0.4\nsamples = 10\nvalue = [4, 10]"] ;
281 -> 301 ;
302 [label="gini = 0.4\nsamples = 8\nvalue = [3, 9]"] ;
301 -> 302 ;
303 [label="gini = 0.5\nsamples = 2\nvalue = [1, 1]"] ;
301 -> 303 ;
304 [label="rain <= 215.5\ngini = 0.4\nsamples = 484\nvalue = [516, 239]"] ;
280 -> 304 ;
305 [label="rain <= 176.5\ngini = 0.4\nsamples = 129\nvalue = [156, 51]"] ;
304 -> 305 ;
306 [label="gini = 0.0\nsamples = 8\nvalue = [13, 0]"] ;
305 -> 306 ;
307 [label="rain <= 190.5\ngini = 0.4\nsamples = 121\nvalue = [143, 51]"] ;
305 -> 307 ;
308 [label="rain <= 189.5\ngini = 0.5\nsamples = 44\nvalue = [48, 25]"] ;
307 -> 308 ;
309 [label="rain <= 184.5\ngini = 0.4\nsamples = 42\nvalue = [48, 21]"] ;
308 -> 309 ;
310 [label="rain <= 182.5\ngini = 0.5\nsamples = 28\nvalue = [31, 18]"] ;
309 -> 310 ;
311 [label="rain <= 179.5\ngini = 0.4\nsamples = 23\nvalue = [29, 11]"] ;
310 -> 311 ;
312 [label="rain <= 178.5\ngini = 0.5\nsamples = 16\nvalue = [16, 11]"] ;
311 -> 312 ;
313 [label="rain <= 177.5\ngini = 0.3\nsamples = 11\nvalue = [14, 4]"] ;
312 -> 313 ;
314 [label="gini = 0.3\nsamples = 5\nvalue = [5, 1]"] ;
313 -> 314 ;
315 [label="gini = 0.4\nsamples = 6\nvalue = [9, 3]"] ;
313 -> 315 ;
316 [label="gini = 0.3\nsamples = 5\nvalue = [2, 7]"] ;
312 -> 316 ;
317 [label="gini = 0.0\nsamples = 7\nvalue = [13, 0]"] ;
311 -> 317 ;
318 [label="rain <= 183.5\ngini = 0.3\nsamples = 5\nvalue = [2, 7]"] ;
310 -> 318 ;
319 [label="gini = 0.5\nsamples = 4\nvalue = [2, 3]"] ;
318 -> 319 ;
320 [label="gini = 0.0\nsamples = 1\nvalue = [0, 4]"] ;
318 -> 320 ;
321 [label="rain <= 187.5\ngini = 0.3\nsamples = 14\nvalue = [17, 3]"] ;
309 -> 321 ;
322 [label="gini = 0.0\nsamples = 5\nvalue = [7, 0]"] ;
321 -> 322 ;
323 [label="rain <= 188.5\ngini = 0.4\nsamples = 9\nvalue = [10, 3]"] ;
321 -> 323 ;
324 [label="gini = 0.4\nsamples = 5\nvalue = [5, 2]"] ;
323 -> 324 ;
325 [label="gini = 0.3\nsamples = 4\nvalue = [5, 1]"] ;
323 -> 325 ;
326 [label="gini = 0.0\nsamples = 2\nvalue = [0, 4]"] ;
308 -> 326 ;
327 [label="rain <= 193.5\ngini = 0.3\nsamples = 77\nvalue = [95, 26]"] ;
307 -> 327 ;
328 [label="rain <= 192.5\ngini = 0.2\nsamples = 8\nvalue = [11, 1]"] ;
327 -> 328 ;
329 [label="gini = 0.0\nsamples = 3\nvalue = [4, 0]"] ;
328 -> 329 ;
330 [label="gini = 0.2\nsamples = 5\nvalue = [7, 1]"] ;
328 -> 330 ;
331 [label="rain <= 200.5\ngini = 0.4\nsamples = 69\nvalue = [84, 25]"] ;
327 -> 331 ;
332 [label="rain <= 196.5\ngini = 0.4\nsamples = 22\nvalue = [20, 10]"] ;
331 -> 332 ;
333 [label="rain <= 194.5\ngini = 0.3\nsamples = 10\nvalue = [12, 3]"] ;
332 -> 333 ;
334 [label="gini = 0.5\nsamples = 3\nvalue = [3, 2]"] ;
333 -> 334 ;
335 [label="rain <= 195.5\ngini = 0.2\nsamples = 7\nvalue = [9, 1]"] ;
333 -> 335 ;
336 [label="gini = 0.3\nsamples = 4\nvalue = [4, 1]"] ;
335 -> 336 ;
337 [label="gini = 0.0\nsamples = 3\nvalue = [5, 0]"] ;
335 -> 337 ;
338 [label="rain <= 197.5\ngini = 0.5\nsamples = 12\nvalue = [8, 7]"] ;
332 -> 338 ;
339 [label="gini = 0.0\nsamples = 2\nvalue = [0, 2]"] ;
338 -> 339 ;
340 [label="rain <= 198.5\ngini = 0.5\nsamples = 10\nvalue = [8, 5]"] ;
338 -> 340 ;
341 [label="gini = 0.3\nsamples = 4\nvalue = [4, 1]"] ;
340 -> 341 ;
342 [label="rain <= 199.5\ngini = 0.5\nsamples = 6\nvalue = [4, 4]"] ;
340 -> 342 ;
343 [label="gini = 0.4\nsamples = 3\nvalue = [1, 2]"] ;
342 -> 343 ;
344 [label="gini = 0.5\nsamples = 3\nvalue = [3, 2]"] ;
342 -> 344 ;
345 [label="rain <= 205.5\ngini = 0.3\nsamples = 47\nvalue = [64, 15]"] ;
331 -> 345 ;
346 [label="rain <= 203.5\ngini = 0.1\nsamples = 17\nvalue = [28, 2]"] ;
345 -> 346 ;
347 [label="gini = 0.0\nsamples = 8\nvalue = [15, 0]"] ;
346 -> 347 ;
348 [label="rain <= 204.5\ngini = 0.2\nsamples = 9\nvalue = [13, 2]"] ;
346 -> 348 ;
349 [label="gini = 0.2\nsamples = 4\nvalue = [7, 1]"] ;
348 -> 349 ;
350 [label="gini = 0.2\nsamples = 5\nvalue = [6, 1]"] ;
348 -> 350 ;
351 [label="rain <= 208.5\ngini = 0.4\nsamples = 30\nvalue = [36, 13]"] ;
345 -> 351 ;
352 [label="rain <= 207.5\ngini = 0.5\nsamples = 13\nvalue = [16, 10]"] ;
351 -> 352 ;
353 [label="rain <= 206.5\ngini = 0.5\nsamples = 11\nvalue = [15, 8]"] ;
352 -> 353 ;
354 [label="gini = 0.4\nsamples = 7\nvalue = [10, 5]"] ;
353 -> 354 ;
355 [label="gini = 0.5\nsamples = 4\nvalue = [5, 3]"] ;
353 -> 355 ;
356 [label="gini = 0.4\nsamples = 2\nvalue = [1, 2]"] ;
352 -> 356 ;
357 [label="rain <= 211.5\ngini = 0.2\nsamples = 17\nvalue = [20, 3]"] ;
351 -> 357 ;
358 [label="gini = 0.0\nsamples = 4\nvalue = [7, 0]"] ;
357 -> 358 ;
359 [label="rain <= 212.5\ngini = 0.3\nsamples = 13\nvalue = [13, 3]"] ;
357 -> 359 ;
360 [label="gini = 0.4\nsamples = 4\nvalue = [4, 2]"] ;
359 -> 360 ;
361 [label="rain <= 213.5\ngini = 0.2\nsamples = 9\nvalue = [9, 1]"] ;
359 -> 361 ;
362 [label="gini = 0.0\nsamples = 4\nvalue = [5, 0]"] ;
361 -> 362 ;
363 [label="rain <= 214.5\ngini = 0.3\nsamples = 5\nvalue = [4, 1]"] ;
361 -> 363 ;
364 [label="gini = 0.4\nsamples = 3\nvalue = [2, 1]"] ;
363 -> 364 ;
365 [label="gini = 0.0\nsamples = 2\nvalue = [2, 0]"] ;
363 -> 365 ;
366 [label="rain <= 251.5\ngini = 0.5\nsamples = 355\nvalue = [360, 188]"] ;
304 -> 366 ;
367 [label="rain <= 243.5\ngini = 0.5\nsamples = 108\nvalue = [96, 69]"] ;
366 -> 367 ;
368 [label="rain <= 235.5\ngini = 0.4\nsamples = 71\nvalue = [75, 33]"] ;
367 -> 368 ;
369 [label="rain <= 218.5\ngini = 0.5\nsamples = 49\nvalue = [39, 30]"] ;
368 -> 369 ;
370 [label="rain <= 217.5\ngini = 0.4\nsamples = 7\nvalue = [9, 4]"] ;
369 -> 370 ;
371 [label="rain <= 216.5\ngini = 0.5\nsamples = 5\nvalue = [7, 4]"] ;
370 -> 371 ;
372 [label="gini = 0.5\nsamples = 2\nvalue = [3, 2]"] ;
371 -> 372 ;
373 [label="gini = 0.4\nsamples = 3\nvalue = [4, 2]"] ;
371 -> 373 ;
374 [label="gini = 0.0\nsamples = 2\nvalue = [2, 0]"] ;
370 -> 374 ;
375 [label="rain <= 223.5\ngini = 0.5\nsamples = 42\nvalue = [30, 26]"] ;
369 -> 375 ;
376 [label="rain <= 220.0\ngini = 0.5\nsamples = 9\nvalue = [5, 8]"] ;
375 -> 376 ;
377 [label="gini = 0.5\nsamples = 6\nvalue = [5, 4]"] ;
376 -> 377 ;
378 [label="gini = 0.0\nsamples = 3\nvalue = [0, 4]"] ;
376 -> 378 ;
379 [label="rain <= 224.5\ngini = 0.5\nsamples = 33\nvalue = [25, 18]"] ;
375 -> 379 ;
380 [label="gini = 0.0\nsamples = 3\nvalue = [3, 0]"] ;
379 -> 380 ;
381 [label="rain <= 225.5\ngini = 0.5\nsamples = 30\nvalue = [22, 18]"] ;
379 -> 381 ;
382 [label="gini = 0.0\nsamples = 3\nvalue = [0, 3]"] ;
381 -> 382 ;
383 [label="rain <= 230.5\ngini = 0.5\nsamples = 27\nvalue = [22, 15]"] ;
381 -> 383 ;
384 [label="rain <= 227.5\ngini = 0.4\nsamples = 19\nvalue = [16, 8]"] ;
383 -> 384 ;
385 [label="rain <= 226.5\ngini = 0.5\nsamples = 9\nvalue = [6, 4]"] ;
384 -> 385 ;
386 [label="gini = 0.4\nsamples = 5\nvalue = [4, 2]"] ;
385 -> 386 ;
387 [label="gini = 0.5\nsamples = 4\nvalue = [2, 2]"] ;
385 -> 387 ;
388 [label="rain <= 228.5\ngini = 0.4\nsamples = 10\nvalue = [10, 4]"] ;
384 -> 388 ;
389 [label="gini = 0.0\nsamples = 2\nvalue = [3, 0]"] ;
388 -> 389 ;
390 [label="rain <= 229.5\ngini = 0.5\nsamples = 8\nvalue = [7, 4]"] ;
388 -> 390 ;
391 [label="gini = 0.5\nsamples = 5\nvalue = [4, 3]"] ;
390 -> 391 ;
392 [label="gini = 0.4\nsamples = 3\nvalue = [3, 1]"] ;
390 -> 392 ;
393 [label="rain <= 233.5\ngini = 0.5\nsamples = 8\nvalue = [6, 7]"] ;
383 -> 393 ;
394 [label="rain <= 232.0\ngini = 0.4\nsamples = 3\nvalue = [1, 3]"] ;
393 -> 394 ;
395 [label="gini = 0.0\nsamples = 1\nvalue = [0, 1]"] ;
394 -> 395 ;
396 [label="gini = 0.4\nsamples = 2\nvalue = [1, 2]"] ;
394 -> 396 ;
397 [label="rain <= 234.5\ngini = 0.5\nsamples = 5\nvalue = [5, 4]"] ;
393 -> 397 ;
398 [label="gini = 0.5\nsamples = 3\nvalue = [3, 2]"] ;
397 -> 398 ;
399 [label="gini = 0.5\nsamples = 2\nvalue = [2, 2]"] ;
397 -> 399 ;
400 [label="rain <= 240.5\ngini = 0.1\nsamples = 22\nvalue = [36, 3]"] ;
368 -> 400 ;
401 [label="rain <= 239.5\ngini = 0.3\nsamples = 12\nvalue = [16, 3]"] ;
400 -> 401 ;
402 [label="rain <= 238.5\ngini = 0.1\nsamples = 11\nvalue = [16, 1]"] ;
401 -> 402 ;
403 [label="gini = 0.0\nsamples = 6\nvalue = [11, 0]"] ;
402 -> 403 ;
404 [label="gini = 0.3\nsamples = 5\nvalue = [5, 1]"] ;
402 -> 404 ;
405 [label="gini = 0.0\nsamples = 1\nvalue = [0, 2]"] ;
401 -> 405 ;
406 [label="gini = 0.0\nsamples = 10\nvalue = [20, 0]"] ;
400 -> 406 ;
407 [label="rain <= 244.5\ngini = 0.5\nsamples = 37\nvalue = [21, 36]"] ;
367 -> 407 ;
408 [label="gini = 0.4\nsamples = 10\nvalue = [4, 13]"] ;
407 -> 408 ;
409 [label="rain <= 248.5\ngini = 0.5\nsamples = 27\nvalue = [17, 23]"] ;
407 -> 409 ;
410 [label="rain <= 245.5\ngini = 0.5\nsamples = 17\nvalue = [11, 11]"] ;
409 -> 410 ;
411 [label="gini = 0.5\nsamples = 11\nvalue = [6, 9]"] ;
410 -> 411 ;
412 [label="rain <= 246.5\ngini = 0.4\nsamples = 6\nvalue = [5, 2]"] ;
410 -> 412 ;
413 [label="gini = 0.0\nsamples = 2\nvalue = [3, 0]"] ;
412 -> 413 ;
414 [label="rain <= 247.5\ngini = 0.5\nsamples = 4\nvalue = [2, 2]"] ;
412 -> 414 ;
415 [label="gini = 0.4\nsamples = 3\nvalue = [1, 2]"] ;
414 -> 415 ;
416 [label="gini = 0.0\nsamples = 1\nvalue = [1, 0]"] ;
414 -> 416 ;
417 [label="rain <= 250.0\ngini = 0.4\nsamples = 10\nvalue = [6, 12]"] ;
409 -> 417 ;
418 [label="gini = 0.4\nsamples = 6\nvalue = [3, 7]"] ;
417 -> 418 ;
419 [label="gini = 0.5\nsamples = 4\nvalue = [3, 5]"] ;
417 -> 419 ;
420 [label="rain <= 271.5\ngini = 0.4\nsamples = 247\nvalue = [264, 119]"] ;
366 -> 420 ;
421 [label="rain <= 265.5\ngini = 0.3\nsamples = 56\nvalue = [67, 15]"] ;
420 -> 421 ;
422 [label="rain <= 261.5\ngini = 0.3\nsamples = 41\nvalue = [48, 13]"] ;
421 -> 422 ;
423 [label="rain <= 260.5\ngini = 0.3\nsamples = 35\nvalue = [43, 10]"] ;
422 -> 423 ;
424 [label="rain <= 259.5\ngini = 0.3\nsamples = 33\nvalue = [37, 10]"] ;
423 -> 424 ;
425 [label="rain <= 258.5\ngini = 0.3\nsamples = 30\nvalue = [36, 8]"] ;
424 -> 425 ;
426 [label="rain <= 257.5\ngini = 0.3\nsamples = 27\nvalue = [30, 8]"] ;
425 -> 426 ;
427 [label="rain <= 256.5\ngini = 0.3\nsamples = 23\nvalue = [27, 5]"] ;
426 -> 427 ;
428 [label="rain <= 252.5\ngini = 0.3\nsamples = 22\nvalue = [24, 5]"] ;
427 -> 428 ;
429 [label="gini = 0.2\nsamples = 8\nvalue = [9, 1]"] ;
428 -> 429 ;
430 [label="rain <= 253.5\ngini = 0.3\nsamples = 14\nvalue = [15, 4]"] ;
428 -> 430 ;
431 [label="gini = 0.5\nsamples = 3\nvalue = [3, 2]"] ;
430 -> 431 ;
432 [label="rain <= 255.5\ngini = 0.2\nsamples = 11\nvalue = [12, 2]"] ;
430 -> 432 ;
433 [label="rain <= 254.5\ngini = 0.2\nsamples = 6\nvalue = [8, 1]"] ;
432 -> 433 ;
434 [label="gini = 0.2\nsamples = 4\nvalue = [6, 1]"] ;
433 -> 434 ;
435 [label="gini = 0.0\nsamples = 2\nvalue = [2, 0]"] ;
433 -> 435 ;
436 [label="gini = 0.3\nsamples = 5\nvalue = [4, 1]"] ;
432 -> 436 ;
437 [label="gini = 0.0\nsamples = 1\nvalue = [3, 0]"] ;
427 -> 437 ;
438 [label="gini = 0.5\nsamples = 4\nvalue = [3, 3]"] ;
426 -> 438 ;
439 [label="gini = 0.0\nsamples = 3\nvalue = [6, 0]"] ;
425 -> 439 ;
440 [label="gini = 0.4\nsamples = 3\nvalue = [1, 2]"] ;
424 -> 440 ;
441 [label="gini = 0.0\nsamples = 2\nvalue = [6, 0]"] ;
423 -> 441 ;
442 [label="rain <= 263.0\ngini = 0.5\nsamples = 6\nvalue = [5, 3]"] ;
422 -> 442 ;
443 [label="gini = 0.4\nsamples = 2\nvalue = [1, 2]"] ;
442 -> 443 ;
444 [label="rain <= 264.5\ngini = 0.3\nsamples = 4\nvalue = [4, 1]"] ;
442 -> 444 ;
445 [label="gini = 0.0\nsamples = 1\nvalue = [1, 0]"] ;
444 -> 445 ;
446 [label="gini = 0.4\nsamples = 3\nvalue = [3, 1]"] ;
444 -> 446 ;
447 [label="rain <= 268.0\ngini = 0.2\nsamples = 15\nvalue = [19, 2]"] ;
421 -> 447 ;
448 [label="gini = 0.0\nsamples = 5\nvalue = [7, 0]"] ;
447 -> 448 ;
449 [label="rain <= 270.5\ngini = 0.2\nsamples = 10\nvalue = [12, 2]"] ;
447 -> 449 ;
450 [label="rain <= 269.5\ngini = 0.3\nsamples = 8\nvalue = [10, 2]"] ;
449 -> 450 ;
451 [label="gini = 0.3\nsamples = 4\nvalue = [5, 1]"] ;
450 -> 451 ;
452 [label="gini = 0.3\nsamples = 4\nvalue = [5, 1]"] ;
450 -> 452 ;
453 [label="gini = 0.0\nsamples = 2\nvalue = [2, 0]"] ;
449 -> 453 ;
454 [label="rain <= 299.5\ngini = 0.5\nsamples = 191\nvalue = [197, 104]"] ;
420 -> 454 ;
455 [label="rain <= 298.5\ngini = 0.5\nsamples = 68\nvalue = [61, 44]"] ;
454 -> 455 ;
456 [label="rain <= 290.5\ngini = 0.5\nsamples = 67\nvalue = [61, 41]"] ;
455 -> 456 ;
457 [label="rain <= 284.5\ngini = 0.5\nsamples = 51\nvalue = [48, 27]"] ;
456 -> 457 ;
458 [label="rain <= 273.5\ngini = 0.5\nsamples = 36\nvalue = [29, 23]"] ;
457 -> 458 ;
459 [label="rain <= 272.5\ngini = 0.4\nsamples = 5\nvalue = [2, 4]"] ;
458 -> 459 ;
460 [label="gini = 0.4\nsamples = 2\nvalue = [1, 2]"] ;
459 -> 460 ;
461 [label="gini = 0.4\nsamples = 3\nvalue = [1, 2]"] ;
459 -> 461 ;
462 [label="rain <= 276.5\ngini = 0.5\nsamples = 31\nvalue = [27, 19]"] ;
458 -> 462 ;
463 [label="rain <= 275.5\ngini = 0.4\nsamples = 10\nvalue = [12, 4]"] ;
462 -> 463 ;
464 [label="gini = 0.0\nsamples = 2\nvalue = [3, 0]"] ;
463 -> 464 ;
465 [label="gini = 0.4\nsamples = 8\nvalue = [9, 4]"] ;
463 -> 465 ;
466 [label="rain <= 280.5\ngini = 0.5\nsamples = 21\nvalue = [15, 15]"] ;
462 -> 466 ;
467 [label="rain <= 279.5\ngini = 0.5\nsamples = 12\nvalue = [7, 11]"] ;
466 -> 467 ;
468 [label="rain <= 278.5\ngini = 0.5\nsamples = 11\nvalue = [7, 10]"] ;
467 -> 468 ;
469 [label="rain <= 277.5\ngini = 0.5\nsamples = 8\nvalue = [6, 8]"] ;
468 -> 469 ;
470 [label="gini = 0.5\nsamples = 4\nvalue = [4, 6]"] ;
469 -> 470 ;
471 [label="gini = 0.5\nsamples = 4\nvalue = [2, 2]"] ;
469 -> 471 ;
472 [label="gini = 0.4\nsamples = 3\nvalue = [1, 2]"] ;
468 -> 472 ;
473 [label="gini = 0.0\nsamples = 1\nvalue = [0, 1]"] ;
467 -> 473 ;
474 [label="rain <= 283.5\ngini = 0.4\nsamples = 9\nvalue = [8, 4]"] ;
466 -> 474 ;
475 [label="gini = 0.0\nsamples = 2\nvalue = [3, 0]"] ;
474 -> 475 ;
476 [label="gini = 0.5\nsamples = 7\nvalue = [5, 4]"] ;
474 -> 476 ;
477 [label="rain <= 285.5\ngini = 0.3\nsamples = 15\nvalue = [19, 4]"] ;
457 -> 477 ;
478 [label="gini = 0.0\nsamples = 6\nvalue = [9, 0]"] ;
477 -> 478 ;
479 [label="rain <= 286.5\ngini = 0.4\nsamples = 9\nvalue = [10, 4]"] ;
477 -> 479 ;
480 [label="gini = 0.0\nsamples = 1\nvalue = [0, 1]"] ;
479 -> 480 ;
481 [label="rain <= 287.5\ngini = 0.4\nsamples = 8\nvalue = [10, 3]"] ;
479 -> 481 ;
482 [label="gini = 0.0\nsamples = 2\nvalue = [4, 0]"] ;
481 -> 482 ;
483 [label="rain <= 288.5\ngini = 0.4\nsamples = 6\nvalue = [6, 3]"] ;
481 -> 483 ;
484 [label="gini = 0.0\nsamples = 1\nvalue = [0, 1]"] ;
483 -> 484 ;
485 [label="rain <= 289.5\ngini = 0.4\nsamples = 5\nvalue = [6, 2]"] ;
483 -> 485 ;
486 [label="gini = 0.5\nsamples = 3\nvalue = [3, 2]"] ;
485 -> 486 ;
487 [label="gini = 0.0\nsamples = 2\nvalue = [3, 0]"] ;
485 -> 487 ;
488 [label="rain <= 295.5\ngini = 0.5\nsamples = 16\nvalue = [13, 14]"] ;
456 -> 488 ;
489 [label="rain <= 293.5\ngini = 0.5\nsamples = 11\nvalue = [8, 12]"] ;
488 -> 489 ;
490 [label="rain <= 291.5\ngini = 0.5\nsamples = 6\nvalue = [5, 6]"] ;
489 -> 490 ;
491 [label="gini = 0.5\nsamples = 3\nvalue = [2, 3]"] ;
490 -> 491 ;
492 [label="gini = 0.5\nsamples = 3\nvalue = [3, 3]"] ;
490 -> 492 ;
493 [label="gini = 0.4\nsamples = 5\nvalue = [3, 6]"] ;
489 -> 493 ;
494 [label="rain <= 297.5\ngini = 0.4\nsamples = 5\nvalue = [5, 2]"] ;
488 -> 494 ;
495 [label="rain <= 296.5\ngini = 0.3\nsamples = 3\nvalue = [4, 1]"] ;
494 -> 495 ;
496 [label="gini = 0.4\nsamples = 2\nvalue = [2, 1]"] ;
495 -> 496 ;
497 [label="gini = 0.0\nsamples = 1\nvalue = [2, 0]"] ;
495 -> 497 ;
498 [label="gini = 0.5\nsamples = 2\nvalue = [1, 1]"] ;
494 -> 498 ;
499 [label="gini = 0.0\nsamples = 1\nvalue = [0, 3]"] ;
455 -> 499 ;
500 [label="rain <= 319.0\ngini = 0.4\nsamples = 123\nvalue = [136, 60]"] ;
454 -> 500 ;
501 [label="rain <= 301.5\ngini = 0.3\nsamples = 42\nvalue = [50, 14]"] ;
500 -> 501 ;
502 [label="gini = 0.0\nsamples = 4\nvalue = [7, 0]"] ;
501 -> 502 ;
503 [label="rain <= 302.5\ngini = 0.4\nsamples = 38\nvalue = [43, 14]"] ;
501 -> 503 ;
504 [label="gini = 0.3\nsamples = 4\nvalue = [1, 4]"] ;
503 -> 504 ;
505 [label="rain <= 308.5\ngini = 0.3\nsamples = 34\nvalue = [42, 10]"] ;
503 -> 505 ;
506 [label="gini = 0.0\nsamples = 9\nvalue = [13, 0]"] ;
505 -> 506 ;
507 [label="rain <= 313.5\ngini = 0.4\nsamples = 25\nvalue = [29, 10]"] ;
505 -> 507 ;
508 [label="rain <= 312.5\ngini = 0.5\nsamples = 14\nvalue = [15, 8]"] ;
507 -> 508 ;
509 [label="rain <= 311.5\ngini = 0.4\nsamples = 11\nvalue = [11, 5]"] ;
508 -> 509 ;
510 [label="rain <= 310.5\ngini = 0.5\nsamples = 9\nvalue = [9, 5]"] ;
509 -> 510 ;
511 [label="rain <= 309.5\ngini = 0.4\nsamples = 4\nvalue = [5, 2]"] ;
510 -> 511 ;
512 [label="gini = 0.4\nsamples = 2\nvalue = [2, 1]"] ;
511 -> 512 ;
513 [label="gini = 0.4\nsamples = 2\nvalue = [3, 1]"] ;
511 -> 513 ;
514 [label="gini = 0.5\nsamples = 5\nvalue = [4, 3]"] ;
510 -> 514 ;
515 [label="gini = 0.0\nsamples = 2\nvalue = [2, 0]"] ;
509 -> 515 ;
516 [label="gini = 0.5\nsamples = 3\nvalue = [4, 3]"] ;
508 -> 516 ;
517 [label="rain <= 315.5\ngini = 0.2\nsamples = 11\nvalue = [14, 2]"] ;
507 -> 517 ;
518 [label="gini = 0.0\nsamples = 5\nvalue = [6, 0]"] ;
517 -> 518 ;
519 [label="rain <= 317.0\ngini = 0.3\nsamples = 6\nvalue = [8, 2]"] ;
517 -> 519 ;
520 [label="gini = 0.4\nsamples = 3\nvalue = [4, 2]"] ;
519 -> 520 ;
521 [label="gini = 0.0\nsamples = 3\nvalue = [4, 0]"] ;
519 -> 521 ;
522 [label="rain <= 324.5\ngini = 0.5\nsamples = 81\nvalue = [86, 46]"] ;
500 -> 522 ;
523 [label="rain <= 322.5\ngini = 0.3\nsamples = 8\nvalue = [2, 7]"] ;
522 -> 523 ;
524 [label="rain <= 321.5\ngini = 0.5\nsamples = 5\nvalue = [2, 3]"] ;
523 -> 524 ;
525 [label="gini = 0.0\nsamples = 3\nvalue = [0, 3]"] ;
524 -> 525 ;
526 [label="gini = 0.0\nsamples = 2\nvalue = [2, 0]"] ;
524 -> 526 ;
527 [label="gini = 0.0\nsamples = 3\nvalue = [0, 4]"] ;
523 -> 527 ;
528 [label="rain <= 335.0\ngini = 0.4\nsamples = 73\nvalue = [84, 39]"] ;
522 -> 528 ;
529 [label="rain <= 327.5\ngini = 0.5\nsamples = 25\nvalue = [28, 17]"] ;
528 -> 529 ;
530 [label="rain <= 325.5\ngini = 0.4\nsamples = 9\nvalue = [12, 4]"] ;
529 -> 530 ;
531 [label="gini = 0.5\nsamples = 2\nvalue = [2, 2]"] ;
530 -> 531 ;
532 [label="rain <= 326.5\ngini = 0.3\nsamples = 7\nvalue = [10, 2]"] ;
530 -> 532 ;
533 [label="gini = 0.4\nsamples = 3\nvalue = [3, 1]"] ;
532 -> 533 ;
534 [label="gini = 0.2\nsamples = 4\nvalue = [7, 1]"] ;
532 -> 534 ;
535 [label="rain <= 328.5\ngini = 0.5\nsamples = 16\nvalue = [16, 13]"] ;
529 -> 535 ;
536 [label="gini = 0.0\nsamples = 1\nvalue = [0, 3]"] ;
535 -> 536 ;
537 [label="rain <= 331.0\ngini = 0.5\nsamples = 15\nvalue = [16, 10]"] ;
535 -> 537 ;
538 [label="gini = 0.0\nsamples = 2\nvalue = [2, 0]"] ;
537 -> 538 ;
539 [label="rain <= 332.5\ngini = 0.5\nsamples = 13\nvalue = [14, 10]"] ;
537 -> 539 ;
540 [label="gini = 0.0\nsamples = 1\nvalue = [0, 2]"] ;
539 -> 540 ;
541 [label="rain <= 333.5\ngini = 0.5\nsamples = 12\nvalue = [14, 8]"] ;
539 -> 541 ;
542 [label="gini = 0.4\nsamples = 7\nvalue = [8, 4]"] ;
541 -> 542 ;
543 [label="gini = 0.5\nsamples = 5\nvalue = [6, 4]"] ;
541 -> 543 ;
544 [label="rain <= 343.5\ngini = 0.4\nsamples = 48\nvalue = [56, 22]"] ;
528 -> 544 ;
545 [label="rain <= 337.5\ngini = 0.2\nsamples = 10\nvalue = [15, 2]"] ;
544 -> 545 ;
546 [label="gini = 0.0\nsamples = 3\nvalue = [6, 0]"] ;
545 -> 546 ;
547 [label="rain <= 342.5\ngini = 0.3\nsamples = 7\nvalue = [9, 2]"] ;
545 -> 547 ;
548 [label="rain <= 339.5\ngini = 0.3\nsamples = 6\nvalue = [8, 2]"] ;
547 -> 548 ;
549 [label="gini = 0.4\nsamples = 2\nvalue = [3, 1]"] ;
548 -> 549 ;
550 [label="rain <= 341.5\ngini = 0.3\nsamples = 4\nvalue = [5, 1]"] ;
548 -> 550 ;
551 [label="gini = 0.0\nsamples = 1\nvalue = [2, 0]"] ;
550 -> 551 ;
552 [label="gini = 0.4\nsamples = 3\nvalue = [3, 1]"] ;
550 -> 552 ;
553 [label="gini = 0.0\nsamples = 1\nvalue = [1, 0]"] ;
547 -> 553 ;
554 [label="rain <= 344.5\ngini = 0.4\nsamples = 38\nvalue = [41, 20]"] ;
544 -> 554 ;
555 [label="gini = 0.5\nsamples = 5\nvalue = [3, 5]"] ;
554 -> 555 ;
556 [label="rain <= 350.5\ngini = 0.4\nsamples = 33\nvalue = [38, 15]"] ;
554 -> 556 ;
557 [label="rain <= 345.5\ngini = 0.3\nsamples = 12\nvalue = [16, 3]"] ;
556 -> 557 ;
558 [label="gini = 0.0\nsamples = 2\nvalue = [5, 0]"] ;
557 -> 558 ;
559 [label="rain <= 347.0\ngini = 0.3\nsamples = 10\nvalue = [11, 3]"] ;
557 -> 559 ;
560 [label="gini = 0.5\nsamples = 3\nvalue = [3, 2]"] ;
559 -> 560 ;
561 [label="rain <= 349.5\ngini = 0.2\nsamples = 7\nvalue = [8, 1]"] ;
559 -> 561 ;
562 [label="rain <= 348.5\ngini = 0.3\nsamples = 4\nvalue = [4, 1]"] ;
561 -> 562 ;
563 [label="gini = 0.0\nsamples = 2\nvalue = [3, 0]"] ;
562 -> 563 ;
564 [label="gini = 0.5\nsamples = 2\nvalue = [1, 1]"] ;
562 -> 564 ;
565 [label="gini = 0.0\nsamples = 3\nvalue = [4, 0]"] ;
561 -> 565 ;
566 [label="rain <= 352.5\ngini = 0.5\nsamples = 21\nvalue = [22, 12]"] ;
556 -> 566 ;
567 [label="rain <= 351.5\ngini = 0.5\nsamples = 7\nvalue = [3, 5]"] ;
566 -> 567 ;
568 [label="gini = 0.4\nsamples = 5\nvalue = [2, 4]"] ;
567 -> 568 ;
569 [label="gini = 0.5\nsamples = 2\nvalue = [1, 1]"] ;
567 -> 569 ;
570 [label="rain <= 353.5\ngini = 0.4\nsamples = 14\nvalue = [19, 7]"] ;
566 -> 570 ;
571 [label="gini = 0.0\nsamples = 3\nvalue = [5, 0]"] ;
570 -> 571 ;
572 [label="rain <= 356.0\ngini = 0.4\nsamples = 11\nvalue = [14, 7]"] ;
570 -> 572 ;
573 [label="rain <= 354.5\ngini = 0.4\nsamples = 3\nvalue = [2, 4]"] ;
572 -> 573 ;
574 [label="gini = 0.4\nsamples = 2\nvalue = [2, 1]"] ;
573 -> 574 ;
575 [label="gini = 0.0\nsamples = 1\nvalue = [0, 3]"] ;
573 -> 575 ;
576 [label="rain <= 358.0\ngini = 0.3\nsamples = 8\nvalue = [12, 3]"] ;
572 -> 576 ;
577 [label="gini = 0.0\nsamples = 4\nvalue = [9, 0]"] ;
576 -> 577 ;
578 [label="gini = 0.5\nsamples = 4\nvalue = [3, 3]"] ;
576 -> 578 ;
579 [label="gini = 0.0\nsamples = 8\nvalue = [12, 0]"] ;
227 -> 579 ;
580 [label="rain <= 415.5\ngini = 0.5\nsamples = 323\nvalue = [306, 207]"] ;
226 -> 580 ;
581 [label="rain <= 404.5\ngini = 0.5\nsamples = 98\nvalue = [75, 72]"] ;
580 -> 581 ;
582 [label="rain <= 402.5\ngini = 0.5\nsamples = 78\nvalue = [65, 52]"] ;
581 -> 582 ;
583 [label="rain <= 382.5\ngini = 0.5\nsamples = 74\nvalue = [59, 52]"] ;
582 -> 583 ;
584 [label="rain <= 369.5\ngini = 0.5\nsamples = 42\nvalue = [36, 24]"] ;
583 -> 584 ;
585 [label="rain <= 367.5\ngini = 0.4\nsamples = 10\nvalue = [4, 8]"] ;
584 -> 585 ;
586 [label="rain <= 364.5\ngini = 0.5\nsamples = 8\nvalue = [4, 6]"] ;
585 -> 586 ;
587 [label="gini = 0.5\nsamples = 3\nvalue = [2, 2]"] ;
586 -> 587 ;
588 [label="rain <= 366.0\ngini = 0.4\nsamples = 5\nvalue = [2, 4]"] ;
586 -> 588 ;
589 [label="gini = 0.0\nsamples = 1\nvalue = [0, 2]"] ;
588 -> 589 ;
590 [label="gini = 0.5\nsamples = 4\nvalue = [2, 2]"] ;
588 -> 590 ;
591 [label="gini = 0.0\nsamples = 2\nvalue = [0, 2]"] ;
585 -> 591 ;
592 [label="rain <= 373.5\ngini = 0.4\nsamples = 32\nvalue = [32, 16]"] ;
584 -> 592 ;
593 [label="rain <= 372.5\ngini = 0.3\nsamples = 10\nvalue = [14, 4]"] ;
592 -> 593 ;
594 [label="rain <= 371.5\ngini = 0.4\nsamples = 9\nvalue = [10, 4]"] ;
593 -> 594 ;
595 [label="rain <= 370.5\ngini = 0.3\nsamples = 6\nvalue = [8, 2]"] ;
594 -> 595 ;
596 [label="gini = 0.4\nsamples = 3\nvalue = [3, 1]"] ;
595 -> 596 ;
597 [label="gini = 0.3\nsamples = 3\nvalue = [5, 1]"] ;
595 -> 597 ;
598 [label="gini = 0.5\nsamples = 3\nvalue = [2, 2]"] ;
594 -> 598 ;
599 [label="gini = 0.0\nsamples = 1\nvalue = [4, 0]"] ;
593 -> 599 ;
600 [label="rain <= 376.5\ngini = 0.5\nsamples = 22\nvalue = [18, 12]"] ;
592 -> 600 ;
601 [label="rain <= 374.5\ngini = 0.5\nsamples = 8\nvalue = [6, 7]"] ;
600 -> 601 ;
602 [label="gini = 0.5\nsamples = 3\nvalue = [3, 2]"] ;
601 -> 602 ;
603 [label="rain <= 375.5\ngini = 0.5\nsamples = 5\nvalue = [3, 5]"] ;
601 -> 603 ;
604 [label="gini = 0.4\nsamples = 2\nvalue = [1, 2]"] ;
603 -> 604 ;
605 [label="gini = 0.5\nsamples = 3\nvalue = [2, 3]"] ;
603 -> 605 ;
606 [label="rain <= 377.5\ngini = 0.4\nsamples = 14\nvalue = [12, 5]"] ;
600 -> 606 ;
607 [label="gini = 0.0\nsamples = 4\nvalue = [5, 0]"] ;
606 -> 607 ;
608 [label="rain <= 381.5\ngini = 0.5\nsamples = 10\nvalue = [7, 5]"] ;
606 -> 608 ;
609 [label="rain <= 380.5\ngini = 0.5\nsamples = 8\nvalue = [5, 5]"] ;
608 -> 609 ;
610 [label="rain <= 378.5\ngini = 0.5\nsamples = 7\nvalue = [5, 4]"] ;
609 -> 610 ;
611 [label="gini = 0.4\nsamples = 3\nvalue = [1, 2]"] ;
610 -> 611 ;
612 [label="rain <= 379.5\ngini = 0.4\nsamples = 4\nvalue = [4, 2]"] ;
610 -> 612 ;
613 [label="gini = 0.5\nsamples = 3\nvalue = [3, 2]"] ;
612 -> 613 ;
614 [label="gini = 0.0\nsamples = 1\nvalue = [1, 0]"] ;
612 -> 614 ;
615 [label="gini = 0.0\nsamples = 1\nvalue = [0, 1]"] ;
609 -> 615 ;
616 [label="gini = 0.0\nsamples = 2\nvalue = [2, 0]"] ;
608 -> 616 ;
617 [label="rain <= 398.5\ngini = 0.5\nsamples = 32\nvalue = [23, 28]"] ;
583 -> 617 ;
618 [label="rain <= 397.5\ngini = 0.5\nsamples = 26\nvalue = [15, 24]"] ;
617 -> 618 ;
619 [label="rain <= 388.5\ngini = 0.5\nsamples = 25\nvalue = [15, 22]"] ;
618 -> 619 ;
620 [label="rain <= 386.5\ngini = 0.4\nsamples = 8\nvalue = [3, 8]"] ;
619 -> 620 ;
621 [label="rain <= 383.5\ngini = 0.4\nsamples = 7\nvalue = [3, 6]"] ;
620 -> 621 ;
622 [label="gini = 0.5\nsamples = 2\nvalue = [1, 1]"] ;
621 -> 622 ;
623 [label="rain <= 384.5\ngini = 0.4\nsamples = 5\nvalue = [2, 5]"] ;
621 -> 623 ;
624 [label="gini = 0.4\nsamples = 2\nvalue = [1, 3]"] ;
623 -> 624 ;
625 [label="gini = 0.4\nsamples = 3\nvalue = [1, 2]"] ;
623 -> 625 ;
626 [label="gini = 0.0\nsamples = 1\nvalue = [0, 2]"] ;
620 -> 626 ;
627 [label="rain <= 389.5\ngini = 0.5\nsamples = 17\nvalue = [12, 14]"] ;
619 -> 627 ;
628 [label="gini = 0.0\nsamples = 2\nvalue = [4, 0]"] ;
627 -> 628 ;
629 [label="rain <= 395.5\ngini = 0.5\nsamples = 15\nvalue = [8, 14]"] ;
627 -> 629 ;
630 [label="rain <= 394.0\ngini = 0.4\nsamples = 8\nvalue = [3, 10]"] ;
629 -> 630 ;
631 [label="rain <= 391.5\ngini = 0.4\nsamples = 5\nvalue = [2, 6]"] ;
630 -> 631 ;
632 [label="gini = 0.4\nsamples = 2\nvalue = [1, 3]"] ;
631 -> 632 ;
633 [label="gini = 0.4\nsamples = 3\nvalue = [1, 3]"] ;
631 -> 633 ;
634 [label="gini = 0.3\nsamples = 3\nvalue = [1, 4]"] ;
630 -> 634 ;
635 [label="rain <= 396.5\ngini = 0.5\nsamples = 7\nvalue = [5, 4]"] ;
629 -> 635 ;
636 [label="gini = 0.5\nsamples = 5\nvalue = [4, 3]"] ;
635 -> 636 ;
637 [label="gini = 0.5\nsamples = 2\nvalue = [1, 1]"] ;
635 -> 637 ;
638 [label="gini = 0.0\nsamples = 1\nvalue = [0, 2]"] ;
618 -> 638 ;
639 [label="rain <= 400.5\ngini = 0.4\nsamples = 6\nvalue = [8, 4]"] ;
617 -> 639 ;
640 [label="gini = 0.0\nsamples = 2\nvalue = [5, 0]"] ;
639 -> 640 ;
641 [label="rain <= 401.5\ngini = 0.5\nsamples = 4\nvalue = [3, 4]"] ;
639 -> 641 ;
642 [label="gini = 0.0\nsamples = 1\nvalue = [0, 1]"] ;
641 -> 642 ;
643 [label="gini = 0.5\nsamples = 3\nvalue = [3, 3]"] ;
641 -> 643 ;
644 [label="gini = 0.0\nsamples = 4\nvalue = [6, 0]"] ;
582 -> 644 ;
645 [label="rain <= 406.5\ngini = 0.4\nsamples = 20\nvalue = [10, 20]"] ;
581 -> 645 ;
646 [label="gini = 0.0\nsamples = 6\nvalue = [0, 6]"] ;
645 -> 646 ;
647 [label="rain <= 408.0\ngini = 0.5\nsamples = 14\nvalue = [10, 14]"] ;
645 -> 647 ;
648 [label="gini = 0.0\nsamples = 1\nvalue = [2, 0]"] ;
647 -> 648 ;
649 [label="rain <= 411.5\ngini = 0.5\nsamples = 13\nvalue = [8, 14]"] ;
647 -> 649 ;
650 [label="rain <= 410.0\ngini = 0.4\nsamples = 7\nvalue = [4, 9]"] ;
649 -> 650 ;
651 [label="gini = 0.4\nsamples = 4\nvalue = [3, 6]"] ;
650 -> 651 ;
652 [label="gini = 0.4\nsamples = 3\nvalue = [1, 3]"] ;
650 -> 652 ;
653 [label="rain <= 413.5\ngini = 0.5\nsamples = 6\nvalue = [4, 5]"] ;
649 -> 653 ;
654 [label="gini = 0.5\nsamples = 3\nvalue = [2, 2]"] ;
653 -> 654 ;
655 [label="gini = 0.5\nsamples = 3\nvalue = [2, 3]"] ;
653 -> 655 ;
656 [label="rain <= 432.5\ngini = 0.5\nsamples = 225\nvalue = [231, 135]"] ;
580 -> 656 ;
657 [label="rain <= 416.5\ngini = 0.2\nsamples = 16\nvalue = [26, 4]"] ;
656 -> 657 ;
658 [label="gini = 0.4\nsamples = 3\nvalue = [4, 2]"] ;
657 -> 658 ;
659 [label="rain <= 422.0\ngini = 0.2\nsamples = 13\nvalue = [22, 2]"] ;
657 -> 659 ;
660 [label="gini = 0.0\nsamples = 4\nvalue = [9, 0]"] ;
659 -> 660 ;
661 [label="rain <= 423.5\ngini = 0.2\nsamples = 9\nvalue = [13, 2]"] ;
659 -> 661 ;
662 [label="gini = 0.4\nsamples = 3\nvalue = [4, 2]"] ;
661 -> 662 ;
663 [label="gini = 0.0\nsamples = 6\nvalue = [9, 0]"] ;
661 -> 663 ;
664 [label="rain <= 446.5\ngini = 0.5\nsamples = 209\nvalue = [205, 131]"] ;
656 -> 664 ;
665 [label="rain <= 443.5\ngini = 0.5\nsamples = 37\nvalue = [30, 35]"] ;
664 -> 665 ;
666 [label="rain <= 442.5\ngini = 0.5\nsamples = 28\nvalue = [28, 19]"] ;
665 -> 666 ;
667 [label="rain <= 436.5\ngini = 0.5\nsamples = 26\nvalue = [26, 19]"] ;
666 -> 667 ;
668 [label="rain <= 433.5\ngini = 0.4\nsamples = 6\nvalue = [10, 4]"] ;
667 -> 668 ;
669 [label="gini = 0.5\nsamples = 3\nvalue = [4, 4]"] ;
668 -> 669 ;
670 [label="gini = 0.0\nsamples = 3\nvalue = [6, 0]"] ;
668 -> 670 ;
671 [label="rain <= 437.5\ngini = 0.5\nsamples = 20\nvalue = [16, 15]"] ;
667 -> 671 ;
672 [label="gini = 0.4\nsamples = 5\nvalue = [2, 6]"] ;
671 -> 672 ;
673 [label="rain <= 438.5\ngini = 0.5\nsamples = 15\nvalue = [14, 9]"] ;
671 -> 673 ;
674 [label="gini = 0.4\nsamples = 4\nvalue = [5, 2]"] ;
673 -> 674 ;
675 [label="rain <= 441.5\ngini = 0.5\nsamples = 11\nvalue = [9, 7]"] ;
673 -> 675 ;
676 [label="rain <= 439.5\ngini = 0.5\nsamples = 9\nvalue = [7, 6]"] ;
675 -> 676 ;
677 [label="gini = 0.5\nsamples = 4\nvalue = [3, 3]"] ;
676 -> 677 ;
678 [label="rain <= 440.5\ngini = 0.5\nsamples = 5\nvalue = [4, 3]"] ;
676 -> 678 ;
679 [label="gini = 0.4\nsamples = 3\nvalue = [2, 1]"] ;
678 -> 679 ;
680 [label="gini = 0.5\nsamples = 2\nvalue = [2, 2]"] ;
678 -> 680 ;
681 [label="gini = 0.4\nsamples = 2\nvalue = [2, 1]"] ;
675 -> 681 ;
682 [label="gini = 0.0\nsamples = 2\nvalue = [2, 0]"] ;
666 -> 682 ;
683 [label="rain <= 444.5\ngini = 0.2\nsamples = 9\nvalue = [2, 16]"] ;
665 -> 683 ;
684 [label="gini = 0.0\nsamples = 6\nvalue = [0, 14]"] ;
683 -> 684 ;
685 [label="rain <= 445.5\ngini = 0.5\nsamples = 3\nvalue = [2, 2]"] ;
683 -> 685 ;
686 [label="gini = 0.4\nsamples = 2\nvalue = [2, 1]"] ;
685 -> 686 ;
687 [label="gini = 0.0\nsamples = 1\nvalue = [0, 1]"] ;
685 -> 687 ;
688 [label="rain <= 543.5\ngini = 0.5\nsamples = 172\nvalue = [175, 96]"] ;
664 -> 688 ;
689 [label="rain <= 541.5\ngini = 0.5\nsamples = 167\nvalue = [167, 96]"] ;
688 -> 689 ;
690 [label="rain <= 449.5\ngini = 0.5\nsamples = 163\nvalue = [166, 92]"] ;
689 -> 690 ;
691 [label="rain <= 447.5\ngini = 0.2\nsamples = 6\nvalue = [7, 1]"] ;
690 -> 691 ;
692 [label="gini = 0.3\nsamples = 4\nvalue = [4, 1]"] ;
691 -> 692 ;
693 [label="gini = 0.0\nsamples = 2\nvalue = [3, 0]"] ;
691 -> 693 ;
694 [label="rain <= 472.5\ngini = 0.5\nsamples = 157\nvalue = [159, 91]"] ;
690 -> 694 ;
695 [label="rain <= 470.0\ngini = 0.5\nsamples = 39\nvalue = [31, 25]"] ;
694 -> 695 ;
696 [label="rain <= 465.5\ngini = 0.5\nsamples = 37\nvalue = [30, 22]"] ;
695 -> 696 ;
697 [label="rain <= 460.5\ngini = 0.5\nsamples = 29\nvalue = [21, 18]"] ;
696 -> 697 ;
698 [label="rain <= 459.5\ngini = 0.5\nsamples = 19\nvalue = [15, 10]"] ;
697 -> 698 ;
699 [label="rain <= 454.5\ngini = 0.5\nsamples = 18\nvalue = [13, 10]"] ;
698 -> 699 ;
700 [label="rain <= 451.5\ngini = 0.5\nsamples = 6\nvalue = [3, 4]"] ;
699 -> 700 ;
701 [label="gini = 0.4\nsamples = 2\nvalue = [1, 2]"] ;
700 -> 701 ;
702 [label="rain <= 453.0\ngini = 0.5\nsamples = 4\nvalue = [2, 2]"] ;
700 -> 702 ;
703 [label="gini = 0.5\nsamples = 2\nvalue = [1, 1]"] ;
702 -> 703 ;
704 [label="gini = 0.5\nsamples = 2\nvalue = [1, 1]"] ;
702 -> 704 ;
705 [label="rain <= 457.5\ngini = 0.5\nsamples = 12\nvalue = [10, 6]"] ;
699 -> 705 ;
706 [label="rain <= 456.5\ngini = 0.3\nsamples = 6\nvalue = [7, 2]"] ;
705 -> 706 ;
707 [label="rain <= 455.5\ngini = 0.4\nsamples = 4\nvalue = [5, 2]"] ;
706 -> 707 ;
708 [label="gini = 0.4\nsamples = 2\nvalue = [2, 1]"] ;
707 -> 708 ;
709 [label="gini = 0.4\nsamples = 2\nvalue = [3, 1]"] ;
707 -> 709 ;
710 [label="gini = 0.0\nsamples = 2\nvalue = [2, 0]"] ;
706 -> 710 ;
711 [label="rain <= 458.5\ngini = 0.5\nsamples = 6\nvalue = [3, 4]"] ;
705 -> 711 ;
712 [label="gini = 0.4\nsamples = 2\nvalue = [1, 2]"] ;
711 -> 712 ;
713 [label="gini = 0.5\nsamples = 4\nvalue = [2, 2]"] ;
711 -> 713 ;
714 [label="gini = 0.0\nsamples = 1\nvalue = [2, 0]"] ;
698 -> 714 ;
715 [label="rain <= 461.5\ngini = 0.5\nsamples = 10\nvalue = [6, 8]"] ;
697 -> 715 ;
716 [label="gini = 0.0\nsamples = 2\nvalue = [0, 3]"] ;
715 -> 716 ;
717 [label="rain <= 463.0\ngini = 0.5\nsamples = 8\nvalue = [6, 5]"] ;
715 -> 717 ;
718 [label="gini = 0.0\nsamples = 2\nvalue = [2, 0]"] ;
717 -> 718 ;
719 [label="rain <= 464.5\ngini = 0.5\nsamples = 6\nvalue = [4, 5]"] ;
717 -> 719 ;
720 [label="gini = 0.5\nsamples = 4\nvalue = [3, 4]"] ;
719 -> 720 ;
721 [label="gini = 0.5\nsamples = 2\nvalue = [1, 1]"] ;
719 -> 721 ;
722 [label="rain <= 467.5\ngini = 0.4\nsamples = 8\nvalue = [9, 4]"] ;
696 -> 722 ;
723 [label="gini = 0.4\nsamples = 5\nvalue = [6, 3]"] ;
722 -> 723 ;
724 [label="gini = 0.4\nsamples = 3\nvalue = [3, 1]"] ;
722 -> 724 ;
725 [label="gini = 0.4\nsamples = 2\nvalue = [1, 3]"] ;
695 -> 725 ;
726 [label="rain <= 480.5\ngini = 0.4\nsamples = 118\nvalue = [128, 66]"] ;
694 -> 726 ;
727 [label="rain <= 474.5\ngini = 0.2\nsamples = 13\nvalue = [18, 3]"] ;
726 -> 727 ;
728 [label="gini = 0.3\nsamples = 6\nvalue = [7, 2]"] ;
727 -> 728 ;
729 [label="rain <= 477.0\ngini = 0.2\nsamples = 7\nvalue = [11, 1]"] ;
727 -> 729 ;
730 [label="gini = 0.0\nsamples = 4\nvalue = [7, 0]"] ;
729 -> 730 ;
731 [label="rain <= 479.0\ngini = 0.3\nsamples = 3\nvalue = [4, 1]"] ;
729 -> 731 ;
732 [label="gini = 0.5\nsamples = 2\nvalue = [1, 1]"] ;
731 -> 732 ;
733 [label="gini = 0.0\nsamples = 1\nvalue = [3, 0]"] ;
731 -> 733 ;
734 [label="rain <= 481.5\ngini = 0.5\nsamples = 105\nvalue = [110, 63]"] ;
726 -> 734 ;
735 [label="gini = 0.0\nsamples = 2\nvalue = [0, 7]"] ;
734 -> 735 ;
736 [label="rain <= 502.5\ngini = 0.4\nsamples = 103\nvalue = [110, 56]"] ;
734 -> 736 ;
737 [label="rain <= 492.5\ngini = 0.4\nsamples = 37\nvalue = [44, 13]"] ;
736 -> 737 ;
738 [label="rain <= 486.5\ngini = 0.4\nsamples = 25\nvalue = [26, 13]"] ;
737 -> 738 ;
739 [label="rain <= 484.5\ngini = 0.2\nsamples = 10\nvalue = [13, 2]"] ;
738 -> 739 ;
740 [label="rain <= 483.5\ngini = 0.3\nsamples = 6\nvalue = [7, 2]"] ;
739 -> 740 ;
741 [label="gini = 0.0\nsamples = 2\nvalue = [2, 0]"] ;
740 -> 741 ;
742 [label="gini = 0.4\nsamples = 4\nvalue = [5, 2]"] ;
740 -> 742 ;
743 [label="gini = 0.0\nsamples = 4\nvalue = [6, 0]"] ;
739 -> 743 ;
744 [label="rain <= 487.5\ngini = 0.5\nsamples = 15\nvalue = [13, 11]"] ;
738 -> 744 ;
745 [label="gini = 0.3\nsamples = 5\nvalue = [1, 5]"] ;
744 -> 745 ;
746 [label="rain <= 489.5\ngini = 0.4\nsamples = 10\nvalue = [12, 6]"] ;
744 -> 746 ;
747 [label="rain <= 488.5\ngini = 0.2\nsamples = 5\nvalue = [8, 1]"] ;
746 -> 747 ;
748 [label="gini = 0.5\nsamples = 2\nvalue = [1, 1]"] ;
747 -> 748 ;
749 [label="gini = 0.0\nsamples = 3\nvalue = [7, 0]"] ;
747 -> 749 ;
750 [label="rain <= 490.5\ngini = 0.5\nsamples = 5\nvalue = [4, 5]"] ;
746 -> 750 ;
751 [label="gini = 0.0\nsamples = 2\nvalue = [0, 3]"] ;
750 -> 751 ;
752 [label="rain <= 491.5\ngini = 0.4\nsamples = 3\nvalue = [4, 2]"] ;
750 -> 752 ;
753 [label="gini = 0.0\nsamples = 1\nvalue = [2, 0]"] ;
752 -> 753 ;
754 [label="gini = 0.5\nsamples = 2\nvalue = [2, 2]"] ;
752 -> 754 ;
755 [label="gini = 0.0\nsamples = 12\nvalue = [18, 0]"] ;
737 -> 755 ;
756 [label="rain <= 504.5\ngini = 0.5\nsamples = 66\nvalue = [66, 43]"] ;
736 -> 756 ;
757 [label="rain <= 503.5\ngini = 0.3\nsamples = 5\nvalue = [2, 9]"] ;
756 -> 757 ;
758 [label="gini = 0.4\nsamples = 3\nvalue = [2, 6]"] ;
757 -> 758 ;
759 [label="gini = 0.0\nsamples = 2\nvalue = [0, 3]"] ;
757 -> 759 ;
760 [label="rain <= 514.5\ngini = 0.5\nsamples = 61\nvalue = [64, 34]"] ;
756 -> 760 ;
761 [label="rain <= 508.5\ngini = 0.3\nsamples = 15\nvalue = [22, 4]"] ;
760 -> 761 ;
762 [label="rain <= 507.5\ngini = 0.4\nsamples = 8\nvalue = [12, 4]"] ;
761 -> 762 ;
763 [label="rain <= 506.0\ngini = 0.2\nsamples = 4\nvalue = [6, 1]"] ;
762 -> 763 ;
764 [label="gini = 0.3\nsamples = 3\nvalue = [4, 1]"] ;
763 -> 764 ;
765 [label="gini = 0.0\nsamples = 1\nvalue = [2, 0]"] ;
763 -> 765 ;
766 [label="gini = 0.4\nsamples = 4\nvalue = [6, 3]"] ;
762 -> 766 ;
767 [label="gini = 0.0\nsamples = 7\nvalue = [10, 0]"] ;
761 -> 767 ;
768 [label="rain <= 522.5\ngini = 0.5\nsamples = 46\nvalue = [42, 30]"] ;
760 -> 768 ;
769 [label="rain <= 521.5\ngini = 0.5\nsamples = 11\nvalue = [6, 10]"] ;
768 -> 769 ;
770 [label="rain <= 516.5\ngini = 0.5\nsamples = 7\nvalue = [6, 4]"] ;
769 -> 770 ;
771 [label="rain <= 515.5\ngini = 0.4\nsamples = 5\nvalue = [2, 4]"] ;
770 -> 771 ;
772 [label="gini = 0.5\nsamples = 2\nvalue = [1, 1]"] ;
771 -> 772 ;
773 [label="gini = 0.4\nsamples = 3\nvalue = [1, 3]"] ;
771 -> 773 ;
774 [label="gini = 0.0\nsamples = 2\nvalue = [4, 0]"] ;
770 -> 774 ;
775 [label="gini = 0.0\nsamples = 4\nvalue = [0, 6]"] ;
769 -> 775 ;
776 [label="rain <= 526.5\ngini = 0.5\nsamples = 35\nvalue = [36, 20]"] ;
768 -> 776 ;
777 [label="gini = 0.0\nsamples = 5\nvalue = [9, 0]"] ;
776 -> 777 ;
778 [label="rain <= 537.5\ngini = 0.5\nsamples = 30\nvalue = [27, 20]"] ;
776 -> 778 ;
779 [label="rain <= 529.0\ngini = 0.5\nsamples = 21\nvalue = [15, 16]"] ;
778 -> 779 ;
780 [label="rain <= 527.5\ngini = 0.4\nsamples = 3\nvalue = [1, 3]"] ;
779 -> 780 ;
781 [label="gini = 0.5\nsamples = 2\nvalue = [1, 1]"] ;
780 -> 781 ;
782 [label="gini = 0.0\nsamples = 1\nvalue = [0, 2]"] ;
780 -> 782 ;
783 [label="rain <= 536.5\ngini = 0.5\nsamples = 18\nvalue = [14, 13]"] ;
779 -> 783 ;
784 [label="rain <= 532.5\ngini = 0.5\nsamples = 14\nvalue = [12, 9]"] ;
783 -> 784 ;
785 [label="rain <= 531.0\ngini = 0.5\nsamples = 5\nvalue = [5, 6]"] ;
784 -> 785 ;
786 [label="gini = 0.5\nsamples = 2\nvalue = [3, 4]"] ;
785 -> 786 ;
787 [label="gini = 0.5\nsamples = 3\nvalue = [2, 2]"] ;
785 -> 787 ;
788 [label="rain <= 533.5\ngini = 0.4\nsamples = 9\nvalue = [7, 3]"] ;
784 -> 788 ;
789 [label="gini = 0.0\nsamples = 2\nvalue = [2, 0]"] ;
788 -> 789 ;
790 [label="rain <= 535.5\ngini = 0.5\nsamples = 7\nvalue = [5, 3]"] ;
788 -> 790 ;
791 [label="rain <= 534.5\ngini = 0.5\nsamples = 6\nvalue = [4, 3]"] ;
790 -> 791 ;
792 [label="gini = 0.4\nsamples = 5\nvalue = [4, 2]"] ;
791 -> 792 ;
793 [label="gini = 0.0\nsamples = 1\nvalue = [0, 1]"] ;
791 -> 793 ;
794 [label="gini = 0.0\nsamples = 1\nvalue = [1, 0]"] ;
790 -> 794 ;
795 [label="gini = 0.4\nsamples = 4\nvalue = [2, 4]"] ;
783 -> 795 ;
796 [label="rain <= 538.5\ngini = 0.4\nsamples = 9\nvalue = [12, 4]"] ;
778 -> 796 ;
797 [label="gini = 0.3\nsamples = 5\nvalue = [10, 2]"] ;
796 -> 797 ;
798 [label="rain <= 540.5\ngini = 0.5\nsamples = 4\nvalue = [2, 2]"] ;
796 -> 798 ;
799 [label="rain <= 539.5\ngini = 0.4\nsamples = 3\nvalue = [1, 2]"] ;
798 -> 799 ;
800 [label="gini = 0.5\nsamples = 2\nvalue = [1, 1]"] ;
799 -> 800 ;
801 [label="gini = 0.0\nsamples = 1\nvalue = [0, 1]"] ;
799 -> 801 ;
802 [label="gini = 0.0\nsamples = 1\nvalue = [1, 0]"] ;
798 -> 802 ;
803 [label="rain <= 542.5\ngini = 0.3\nsamples = 4\nvalue = [1, 4]"] ;
689 -> 803 ;
804 [label="gini = 0.0\nsamples = 2\nvalue = [0, 3]"] ;
803 -> 804 ;
805 [label="gini = 0.5\nsamples = 2\nvalue = [1, 1]"] ;
803 -> 805 ;
806 [label="gini = 0.0\nsamples = 5\nvalue = [8, 0]"] ;
688 -> 806 ;
807 [label="rain <= 896.5\ngini = 0.5\nsamples = 836\nvalue = [620, 666]"] ;
1 -> 807 ;
808 [label="rain <= 548.5\ngini = 0.5\nsamples = 404\nvalue = [328, 283]"] ;
807 -> 808 ;
809 [label="gini = 0.0\nsamples = 2\nvalue = [0, 5]"] ;
808 -> 809 ;
810 [label="rain <= 882.5\ngini = 0.5\nsamples = 402\nvalue = [328, 278]"] ;
808 -> 810 ;
811 [label="rain <= 734.5\ngini = 0.5\nsamples = 389\nvalue = [314, 274]"] ;
810 -> 811 ;
812 [label="rain <= 711.5\ngini = 0.5\nsamples = 235\nvalue = [183, 175]"] ;
811 -> 812 ;
813 [label="rain <= 687.5\ngini = 0.5\nsamples = 201\nvalue = [166, 145]"] ;
812 -> 813 ;
814 [label="rain <= 681.5\ngini = 0.5\nsamples = 186\nvalue = [145, 141]"] ;
813 -> 814 ;
815 [label="rain <= 620.5\ngini = 0.5\nsamples = 176\nvalue = [142, 128]"] ;
814 -> 815 ;
816 [label="rain <= 609.5\ngini = 0.5\nsamples = 105\nvalue = [82, 85]"] ;
815 -> 816 ;
817 [label="rain <= 598.5\ngini = 0.5\nsamples = 88\nvalue = [75, 67]"] ;
816 -> 817 ;
818 [label="rain <= 595.5\ngini = 0.5\nsamples = 75\nvalue = [57, 62]"] ;
817 -> 818 ;
819 [label="rain <= 589.5\ngini = 0.5\nsamples = 73\nvalue = [57, 56]"] ;
818 -> 819 ;
820 [label="rain <= 584.5\ngini = 0.5\nsamples = 67\nvalue = [50, 55]"] ;
819 -> 820 ;
821 [label="rain <= 549.5\ngini = 0.5\nsamples = 56\nvalue = [48, 44]"] ;
820 -> 821 ;
822 [label="gini = 0.0\nsamples = 2\nvalue = [2, 0]"] ;
821 -> 822 ;
823 [label="rain <= 571.5\ngini = 0.5\nsamples = 54\nvalue = [46, 44]"] ;
821 -> 823 ;
824 [label="rain <= 569.5\ngini = 0.5\nsamples = 36\nvalue = [28, 33]"] ;
823 -> 824 ;
825 [label="rain <= 565.5\ngini = 0.5\nsamples = 33\nvalue = [28, 27]"] ;
824 -> 825 ;
826 [label="rain <= 562.0\ngini = 0.5\nsamples = 29\nvalue = [22, 27]"] ;
825 -> 826 ;
827 [label="rain <= 557.5\ngini = 0.5\nsamples = 21\nvalue = [20, 17]"] ;
826 -> 827 ;
828 [label="rain <= 555.5\ngini = 0.5\nsamples = 11\nvalue = [8, 13]"] ;
827 -> 828 ;
829 [label="rain <= 552.0\ngini = 0.5\nsamples = 9\nvalue = [8, 8]"] ;
828 -> 829 ;
830 [label="rain <= 550.5\ngini = 0.4\nsamples = 5\nvalue = [3, 6]"] ;
829 -> 830 ;
831 [label="gini = 0.4\nsamples = 2\nvalue = [1, 3]"] ;
830 -> 831 ;
832 [label="gini = 0.5\nsamples = 3\nvalue = [2, 3]"] ;
830 -> 832 ;
833 [label="rain <= 553.5\ngini = 0.4\nsamples = 4\nvalue = [5, 2]"] ;
829 -> 833 ;
834 [label="gini = 0.0\nsamples = 1\nvalue = [2, 0]"] ;
833 -> 834 ;
835 [label="rain <= 554.5\ngini = 0.5\nsamples = 3\nvalue = [3, 2]"] ;
833 -> 835 ;
836 [label="gini = 0.5\nsamples = 2\nvalue = [2, 2]"] ;
835 -> 836 ;
837 [label="gini = 0.0\nsamples = 1\nvalue = [1, 0]"] ;
835 -> 837 ;
838 [label="gini = 0.0\nsamples = 2\nvalue = [0, 5]"] ;
828 -> 838 ;
839 [label="rain <= 560.5\ngini = 0.4\nsamples = 10\nvalue = [12, 4]"] ;
827 -> 839 ;
840 [label="gini = 0.0\nsamples = 3\nvalue = [6, 0]"] ;
839 -> 840 ;
841 [label="gini = 0.5\nsamples = 7\nvalue = [6, 4]"] ;
839 -> 841 ;
842 [label="rain <= 564.5\ngini = 0.3\nsamples = 8\nvalue = [2, 10]"] ;
826 -> 842 ;
843 [label="gini = 0.0\nsamples = 6\nvalue = [0, 8]"] ;
842 -> 843 ;
844 [label="gini = 0.5\nsamples = 2\nvalue = [2, 2]"] ;
842 -> 844 ;
845 [label="gini = 0.0\nsamples = 4\nvalue = [6, 0]"] ;
825 -> 845 ;
846 [label="gini = 0.0\nsamples = 3\nvalue = [0, 6]"] ;
824 -> 846 ;
847 [label="rain <= 578.0\ngini = 0.5\nsamples = 18\nvalue = [18, 11]"] ;
823 -> 847 ;
848 [label="rain <= 574.5\ngini = 0.4\nsamples = 9\nvalue = [10, 3]"] ;
847 -> 848 ;
849 [label="rain <= 572.5\ngini = 0.3\nsamples = 5\nvalue = [5, 1]"] ;
848 -> 849 ;
850 [label="gini = 0.3\nsamples = 4\nvalue = [4, 1]"] ;
849 -> 850 ;
851 [label="gini = 0.0\nsamples = 1\nvalue = [1, 0]"] ;
849 -> 851 ;
852 [label="rain <= 576.5\ngini = 0.4\nsamples = 4\nvalue = [5, 2]"] ;
848 -> 852 ;
853 [label="gini = 0.0\nsamples = 1\nvalue = [0, 1]"] ;
852 -> 853 ;
854 [label="gini = 0.3\nsamples = 3\nvalue = [5, 1]"] ;
852 -> 854 ;
855 [label="rain <= 579.5\ngini = 0.5\nsamples = 9\nvalue = [8, 8]"] ;
847 -> 855 ;
856 [label="gini = 0.0\nsamples = 1\nvalue = [0, 1]"] ;
855 -> 856 ;
857 [label="rain <= 582.5\ngini = 0.5\nsamples = 8\nvalue = [8, 7]"] ;
855 -> 857 ;
858 [label="rain <= 581.0\ngini = 0.5\nsamples = 4\nvalue = [3, 4]"] ;
857 -> 858 ;
859 [label="gini = 0.5\nsamples = 3\nvalue = [3, 2]"] ;
858 -> 859 ;
860 [label="gini = 0.0\nsamples = 1\nvalue = [0, 2]"] ;
858 -> 860 ;
861 [label="rain <= 583.5\ngini = 0.5\nsamples = 4\nvalue = [5, 3]"] ;
857 -> 861 ;
862 [label="gini = 0.0\nsamples = 1\nvalue = [2, 0]"] ;
861 -> 862 ;
863 [label="gini = 0.5\nsamples = 3\nvalue = [3, 3]"] ;
861 -> 863 ;
864 [label="rain <= 588.0\ngini = 0.3\nsamples = 11\nvalue = [2, 11]"] ;
820 -> 864 ;
865 [label="rain <= 585.5\ngini = 0.3\nsamples = 8\nvalue = [2, 7]"] ;
864 -> 865 ;
866 [label="gini = 0.0\nsamples = 2\nvalue = [0, 3]"] ;
865 -> 866 ;
867 [label="rain <= 586.5\ngini = 0.4\nsamples = 6\nvalue = [2, 4]"] ;
865 -> 867 ;
868 [label="gini = 0.4\nsamples = 4\nvalue = [1, 3]"] ;
867 -> 868 ;
869 [label="gini = 0.5\nsamples = 2\nvalue = [1, 1]"] ;
867 -> 869 ;
870 [label="gini = 0.0\nsamples = 3\nvalue = [0, 4]"] ;
864 -> 870 ;
871 [label="rain <= 592.5\ngini = 0.2\nsamples = 6\nvalue = [7, 1]"] ;
819 -> 871 ;
872 [label="gini = 0.0\nsamples = 3\nvalue = [5, 0]"] ;
871 -> 872 ;
873 [label="rain <= 593.5\ngini = 0.4\nsamples = 3\nvalue = [2, 1]"] ;
871 -> 873 ;
874 [label="gini = 0.5\nsamples = 2\nvalue = [1, 1]"] ;
873 -> 874 ;
875 [label="gini = 0.0\nsamples = 1\nvalue = [1, 0]"] ;
873 -> 875 ;
876 [label="gini = 0.0\nsamples = 2\nvalue = [0, 6]"] ;
818 -> 876 ;
877 [label="rain <= 604.5\ngini = 0.3\nsamples = 13\nvalue = [18, 5]"] ;
817 -> 877 ;
878 [label="gini = 0.0\nsamples = 6\nvalue = [11, 0]"] ;
877 -> 878 ;
879 [label="rain <= 605.5\ngini = 0.5\nsamples = 7\nvalue = [7, 5]"] ;
877 -> 879 ;
880 [label="gini = 0.0\nsamples = 1\nvalue = [0, 2]"] ;
879 -> 880 ;
881 [label="rain <= 606.5\ngini = 0.4\nsamples = 6\nvalue = [7, 3]"] ;
879 -> 881 ;
882 [label="gini = 0.4\nsamples = 3\nvalue = [4, 2]"] ;
881 -> 882 ;
883 [label="rain <= 608.0\ngini = 0.4\nsamples = 3\nvalue = [3, 1]"] ;
881 -> 883 ;
884 [label="gini = 0.0\nsamples = 1\nvalue = [1, 0]"] ;
883 -> 884 ;
885 [label="gini = 0.4\nsamples = 2\nvalue = [2, 1]"] ;
883 -> 885 ;
886 [label="rain <= 613.5\ngini = 0.4\nsamples = 17\nvalue = [7, 18]"] ;
816 -> 886 ;
887 [label="rain <= 610.5\ngini = 0.3\nsamples = 8\nvalue = [2, 8]"] ;
886 -> 887 ;
888 [label="gini = 0.4\nsamples = 2\nvalue = [1, 2]"] ;
887 -> 888 ;
889 [label="rain <= 611.5\ngini = 0.2\nsamples = 6\nvalue = [1, 6]"] ;
887 -> 889 ;
890 [label="gini = 0.0\nsamples = 1\nvalue = [0, 1]"] ;
889 -> 890 ;
891 [label="rain <= 612.5\ngini = 0.3\nsamples = 5\nvalue = [1, 5]"] ;
889 -> 891 ;
892 [label="gini = 0.3\nsamples = 4\nvalue = [1, 4]"] ;
891 -> 892 ;
893 [label="gini = 0.0\nsamples = 1\nvalue = [0, 1]"] ;
891 -> 893 ;
894 [label="rain <= 614.5\ngini = 0.4\nsamples = 9\nvalue = [5, 10]"] ;
886 -> 894 ;
895 [label="gini = 0.5\nsamples = 3\nvalue = [3, 3]"] ;
894 -> 895 ;
896 [label="rain <= 618.5\ngini = 0.3\nsamples = 6\nvalue = [2, 7]"] ;
894 -> 896 ;
897 [label="gini = 0.0\nsamples = 3\nvalue = [0, 4]"] ;
896 -> 897 ;
898 [label="gini = 0.5\nsamples = 3\nvalue = [2, 3]"] ;
896 -> 898 ;
899 [label="rain <= 643.5\ngini = 0.5\nsamples = 71\nvalue = [60, 43]"] ;
815 -> 899 ;
900 [label="rain <= 631.5\ngini = 0.4\nsamples = 31\nvalue = [35, 12]"] ;
899 -> 900 ;
901 [label="rain <= 629.5\ngini = 0.2\nsamples = 12\nvalue = [16, 2]"] ;
900 -> 901 ;
902 [label="rain <= 626.5\ngini = 0.3\nsamples = 9\nvalue = [11, 2]"] ;
901 -> 902 ;
903 [label="rain <= 622.5\ngini = 0.2\nsamples = 7\nvalue = [9, 1]"] ;
902 -> 903 ;
904 [label="gini = 0.0\nsamples = 2\nvalue = [3, 0]"] ;
903 -> 904 ;
905 [label="rain <= 623.5\ngini = 0.2\nsamples = 5\nvalue = [6, 1]"] ;
903 -> 905 ;
906 [label="gini = 0.3\nsamples = 3\nvalue = [4, 1]"] ;
905 -> 906 ;
907 [label="gini = 0.0\nsamples = 2\nvalue = [2, 0]"] ;
905 -> 907 ;
908 [label="gini = 0.4\nsamples = 2\nvalue = [2, 1]"] ;
902 -> 908 ;
909 [label="gini = 0.0\nsamples = 3\nvalue = [5, 0]"] ;
901 -> 909 ;
910 [label="rain <= 633.5\ngini = 0.5\nsamples = 19\nvalue = [19, 10]"] ;
900 -> 910 ;
911 [label="rain <= 632.5\ngini = 0.4\nsamples = 5\nvalue = [3, 6]"] ;
910 -> 911 ;
912 [label="gini = 0.5\nsamples = 2\nvalue = [2, 3]"] ;
911 -> 912 ;
913 [label="gini = 0.4\nsamples = 3\nvalue = [1, 3]"] ;
911 -> 913 ;
914 [label="rain <= 636.5\ngini = 0.3\nsamples = 14\nvalue = [16, 4]"] ;
910 -> 914 ;
915 [label="gini = 0.0\nsamples = 4\nvalue = [9, 0]"] ;
914 -> 915 ;
916 [label="rain <= 637.5\ngini = 0.5\nsamples = 10\nvalue = [7, 4]"] ;
914 -> 916 ;
917 [label="gini = 0.0\nsamples = 2\nvalue = [0, 2]"] ;
916 -> 917 ;
918 [label="rain <= 638.5\ngini = 0.3\nsamples = 8\nvalue = [7, 2]"] ;
916 -> 918 ;
919 [label="gini = 0.0\nsamples = 2\nvalue = [3, 0]"] ;
918 -> 919 ;
920 [label="rain <= 640.5\ngini = 0.4\nsamples = 6\nvalue = [4, 2]"] ;
918 -> 920 ;
921 [label="rain <= 639.5\ngini = 0.4\nsamples = 3\nvalue = [1, 2]"] ;
920 -> 921 ;
922 [label="gini = 0.5\nsamples = 2\nvalue = [1, 1]"] ;
921 -> 922 ;
923 [label="gini = 0.0\nsamples = 1\nvalue = [0, 1]"] ;
921 -> 923 ;
924 [label="gini = 0.0\nsamples = 3\nvalue = [3, 0]"] ;
920 -> 924 ;
925 [label="rain <= 653.0\ngini = 0.5\nsamples = 40\nvalue = [25, 31]"] ;
899 -> 925 ;
926 [label="rain <= 646.5\ngini = 0.4\nsamples = 13\nvalue = [5, 16]"] ;
925 -> 926 ;
927 [label="rain <= 645.0\ngini = 0.5\nsamples = 3\nvalue = [2, 3]"] ;
926 -> 927 ;
928 [label="gini = 0.0\nsamples = 1\nvalue = [0, 1]"] ;
927 -> 928 ;
929 [label="gini = 0.5\nsamples = 2\nvalue = [2, 2]"] ;
927 -> 929 ;
930 [label="rain <= 648.0\ngini = 0.3\nsamples = 10\nvalue = [3, 13]"] ;
926 -> 930 ;
931 [label="gini = 0.0\nsamples = 4\nvalue = [0, 6]"] ;
930 -> 931 ;
932 [label="rain <= 649.5\ngini = 0.4\nsamples = 6\nvalue = [3, 7]"] ;
930 -> 932 ;
933 [label="gini = 0.0\nsamples = 1\nvalue = [1, 0]"] ;
932 -> 933 ;
934 [label="rain <= 651.5\ngini = 0.3\nsamples = 5\nvalue = [2, 7]"] ;
932 -> 934 ;
935 [label="gini = 0.0\nsamples = 2\nvalue = [0, 2]"] ;
934 -> 935 ;
936 [label="gini = 0.4\nsamples = 3\nvalue = [2, 5]"] ;
934 -> 936 ;
937 [label="rain <= 656.5\ngini = 0.5\nsamples = 27\nvalue = [20, 15]"] ;
925 -> 937 ;
938 [label="gini = 0.0\nsamples = 3\nvalue = [3, 0]"] ;
937 -> 938 ;
939 [label="rain <= 657.5\ngini = 0.5\nsamples = 24\nvalue = [17, 15]"] ;
937 -> 939 ;
940 [label="gini = 0.0\nsamples = 1\nvalue = [0, 1]"] ;
939 -> 940 ;
941 [label="rain <= 659.5\ngini = 0.5\nsamples = 23\nvalue = [17, 14]"] ;
939 -> 941 ;
942 [label="rain <= 658.5\ngini = 0.4\nsamples = 4\nvalue = [6, 2]"] ;
941 -> 942 ;
943 [label="gini = 0.3\nsamples = 2\nvalue = [4, 1]"] ;
942 -> 943 ;
944 [label="gini = 0.4\nsamples = 2\nvalue = [2, 1]"] ;
942 -> 944 ;
945 [label="rain <= 664.0\ngini = 0.5\nsamples = 19\nvalue = [11, 12]"] ;
941 -> 945 ;
946 [label="rain <= 660.5\ngini = 0.3\nsamples = 5\nvalue = [1, 5]"] ;
945 -> 946 ;
947 [label="gini = 0.5\nsamples = 2\nvalue = [1, 1]"] ;
946 -> 947 ;
948 [label="gini = 0.0\nsamples = 3\nvalue = [0, 4]"] ;
946 -> 948 ;
949 [label="rain <= 667.0\ngini = 0.5\nsamples = 14\nvalue = [10, 7]"] ;
945 -> 949 ;
950 [label="gini = 0.0\nsamples = 2\nvalue = [2, 0]"] ;
949 -> 950 ;
951 [label="rain <= 670.0\ngini = 0.5\nsamples = 12\nvalue = [8, 7]"] ;
949 -> 951 ;
952 [label="gini = 0.0\nsamples = 1\nvalue = [0, 1]"] ;
951 -> 952 ;
953 [label="rain <= 672.5\ngini = 0.5\nsamples = 11\nvalue = [8, 6]"] ;
951 -> 953 ;
954 [label="gini = 0.0\nsamples = 1\nvalue = [1, 0]"] ;
953 -> 954 ;
955 [label="rain <= 674.5\ngini = 0.5\nsamples = 10\nvalue = [7, 6]"] ;
953 -> 955 ;
956 [label="gini = 0.0\nsamples = 1\nvalue = [0, 1]"] ;
955 -> 956 ;
957 [label="rain <= 677.0\ngini = 0.5\nsamples = 9\nvalue = [7, 5]"] ;
955 -> 957 ;
958 [label="gini = 0.0\nsamples = 1\nvalue = [1, 0]"] ;
957 -> 958 ;
959 [label="rain <= 678.5\ngini = 0.5\nsamples = 8\nvalue = [6, 5]"] ;
957 -> 959 ;
960 [label="gini = 0.5\nsamples = 5\nvalue = [3, 4]"] ;
959 -> 960 ;
961 [label="rain <= 679.5\ngini = 0.4\nsamples = 3\nvalue = [3, 1]"] ;
959 -> 961 ;
962 [label="gini = 0.0\nsamples = 1\nvalue = [2, 0]"] ;
961 -> 962 ;
963 [label="rain <= 680.5\ngini = 0.5\nsamples = 2\nvalue = [1, 1]"] ;
961 -> 963 ;
964 [label="gini = 0.0\nsamples = 1\nvalue = [0, 1]"] ;
963 -> 964 ;
965 [label="gini = 0.0\nsamples = 1\nvalue = [1, 0]"] ;
963 -> 965 ;
966 [label="rain <= 685.5\ngini = 0.3\nsamples = 10\nvalue = [3, 13]"] ;
814 -> 966 ;
967 [label="gini = 0.0\nsamples = 7\nvalue = [0, 11]"] ;
966 -> 967 ;
968 [label="rain <= 686.5\ngini = 0.5\nsamples = 3\nvalue = [3, 2]"] ;
966 -> 968 ;
969 [label="gini = 0.4\nsamples = 2\nvalue = [3, 1]"] ;
968 -> 969 ;
970 [label="gini = 0.0\nsamples = 1\nvalue = [0, 1]"] ;
968 -> 970 ;
971 [label="rain <= 709.5\ngini = 0.3\nsamples = 15\nvalue = [21, 4]"] ;
813 -> 971 ;
972 [label="rain <= 700.0\ngini = 0.2\nsamples = 13\nvalue = [19, 2]"] ;
971 -> 972 ;
973 [label="rain <= 698.5\ngini = 0.3\nsamples = 8\nvalue = [9, 2]"] ;
972 -> 973 ;
974 [label="rain <= 694.5\ngini = 0.2\nsamples = 7\nvalue = [9, 1]"] ;
973 -> 974 ;
975 [label="gini = 0.0\nsamples = 4\nvalue = [6, 0]"] ;
974 -> 975 ;
976 [label="rain <= 696.5\ngini = 0.4\nsamples = 3\nvalue = [3, 1]"] ;
974 -> 976 ;
977 [label="gini = 0.4\nsamples = 2\nvalue = [2, 1]"] ;
976 -> 977 ;
978 [label="gini = 0.0\nsamples = 1\nvalue = [1, 0]"] ;
976 -> 978 ;
979 [label="gini = 0.0\nsamples = 1\nvalue = [0, 1]"] ;
973 -> 979 ;
980 [label="gini = 0.0\nsamples = 5\nvalue = [10, 0]"] ;
972 -> 980 ;
981 [label="rain <= 710.5\ngini = 0.5\nsamples = 2\nvalue = [2, 2]"] ;
971 -> 981 ;
982 [label="gini = 0.0\nsamples = 1\nvalue = [0, 2]"] ;
981 -> 982 ;
983 [label="gini = 0.0\nsamples = 1\nvalue = [2, 0]"] ;
981 -> 983 ;
984 [label="rain <= 733.5\ngini = 0.5\nsamples = 34\nvalue = [17, 30]"] ;
812 -> 984 ;
985 [label="rain <= 732.5\ngini = 0.5\nsamples = 31\nvalue = [17, 27]"] ;
984 -> 985 ;
986 [label="rain <= 730.5\ngini = 0.5\nsamples = 29\nvalue = [15, 26]"] ;
985 -> 986 ;
987 [label="rain <= 729.5\ngini = 0.5\nsamples = 24\nvalue = [14, 21]"] ;
986 -> 987 ;
988 [label="rain <= 725.5\ngini = 0.5\nsamples = 23\nvalue = [13, 21]"] ;
987 -> 988 ;
989 [label="rain <= 724.0\ngini = 0.5\nsamples = 19\nvalue = [12, 17]"] ;
988 -> 989 ;
990 [label="rain <= 715.5\ngini = 0.5\nsamples = 17\nvalue = [10, 17]"] ;
989 -> 990 ;
991 [label="rain <= 713.5\ngini = 0.4\nsamples = 4\nvalue = [2, 6]"] ;
990 -> 991 ;
992 [label="gini = 0.4\nsamples = 3\nvalue = [2, 4]"] ;
991 -> 992 ;
993 [label="gini = 0.0\nsamples = 1\nvalue = [0, 2]"] ;
991 -> 993 ;
994 [label="rain <= 717.0\ngini = 0.5\nsamples = 13\nvalue = [8, 11]"] ;
990 -> 994 ;
995 [label="gini = 0.0\nsamples = 1\nvalue = [1, 0]"] ;
994 -> 995 ;
996 [label="rain <= 722.0\ngini = 0.5\nsamples = 12\nvalue = [7, 11]"] ;
994 -> 996 ;
997 [label="rain <= 720.5\ngini = 0.5\nsamples = 11\nvalue = [7, 10]"] ;
996 -> 997 ;
998 [label="rain <= 718.5\ngini = 0.4\nsamples = 8\nvalue = [4, 8]"] ;
997 -> 998 ;
999 [label="gini = 0.5\nsamples = 5\nvalue = [4, 5]"] ;
998 -> 999 ;
1000 [label="gini = 0.0\nsamples = 3\nvalue = [0, 3]"] ;
998 -> 1000 ;
1001 [label="gini = 0.5\nsamples = 3\nvalue = [3, 2]"] ;
997 -> 1001 ;
1002 [label="gini = 0.0\nsamples = 1\nvalue = [0, 1]"] ;
996 -> 1002 ;
1003 [label="gini = 0.0\nsamples = 2\nvalue = [2, 0]"] ;
989 -> 1003 ;
1004 [label="rain <= 728.0\ngini = 0.3\nsamples = 4\nvalue = [1, 4]"] ;
988 -> 1004 ;
1005 [label="gini = 0.0\nsamples = 2\nvalue = [0, 3]"] ;
1004 -> 1005 ;
1006 [label="gini = 0.5\nsamples = 2\nvalue = [1, 1]"] ;
1004 -> 1006 ;
1007 [label="gini = 0.0\nsamples = 1\nvalue = [1, 0]"] ;
987 -> 1007 ;
1008 [label="rain <= 731.5\ngini = 0.3\nsamples = 5\nvalue = [1, 5]"] ;
986 -> 1008 ;
1009 [label="gini = 0.0\nsamples = 1\nvalue = [0, 1]"] ;
1008 -> 1009 ;
1010 [label="gini = 0.3\nsamples = 4\nvalue = [1, 4]"] ;
1008 -> 1010 ;
1011 [label="gini = 0.4\nsamples = 2\nvalue = [2, 1]"] ;
985 -> 1011 ;
1012 [label="gini = 0.0\nsamples = 3\nvalue = [0, 3]"] ;
984 -> 1012 ;
1013 [label="rain <= 757.0\ngini = 0.5\nsamples = 154\nvalue = [131, 99]"] ;
811 -> 1013 ;
1014 [label="rain <= 737.5\ngini = 0.4\nsamples = 30\nvalue = [34, 10]"] ;
1013 -> 1014 ;
1015 [label="gini = 0.0\nsamples = 6\nvalue = [10, 0]"] ;
1014 -> 1015 ;
1016 [label="rain <= 749.0\ngini = 0.4\nsamples = 24\nvalue = [24, 10]"] ;
1014 -> 1016 ;
1017 [label="rain <= 747.5\ngini = 0.5\nsamples = 13\nvalue = [10, 8]"] ;
1016 -> 1017 ;
1018 [label="rain <= 746.5\ngini = 0.5\nsamples = 12\nvalue = [10, 7]"] ;
1017 -> 1018 ;
1019 [label="rain <= 740.0\ngini = 0.5\nsamples = 11\nvalue = [8, 7]"] ;
1018 -> 1019 ;
1020 [label="rain <= 738.5\ngini = 0.4\nsamples = 4\nvalue = [3, 1]"] ;
1019 -> 1020 ;
1021 [label="gini = 0.4\nsamples = 3\nvalue = [2, 1]"] ;
1020 -> 1021 ;
1022 [label="gini = 0.0\nsamples = 1\nvalue = [1, 0]"] ;
1020 -> 1022 ;
1023 [label="rain <= 743.5\ngini = 0.5\nsamples = 7\nvalue = [5, 6]"] ;
1019 -> 1023 ;
1024 [label="gini = 0.5\nsamples = 3\nvalue = [2, 3]"] ;
1023 -> 1024 ;
1025 [label="gini = 0.5\nsamples = 4\nvalue = [3, 3]"] ;
1023 -> 1025 ;
1026 [label="gini = 0.0\nsamples = 1\nvalue = [2, 0]"] ;
1018 -> 1026 ;
1027 [label="gini = 0.0\nsamples = 1\nvalue = [0, 1]"] ;
1017 -> 1027 ;
1028 [label="rain <= 753.5\ngini = 0.2\nsamples = 11\nvalue = [14, 2]"] ;
1016 -> 1028 ;
1029 [label="gini = 0.0\nsamples = 6\nvalue = [9, 0]"] ;
1028 -> 1029 ;
1030 [label="rain <= 754.5\ngini = 0.4\nsamples = 5\nvalue = [5, 2]"] ;
1028 -> 1030 ;
1031 [label="gini = 0.0\nsamples = 1\nvalue = [0, 1]"] ;
1030 -> 1031 ;
1032 [label="rain <= 755.5\ngini = 0.3\nsamples = 4\nvalue = [5, 1]"] ;
1030 -> 1032 ;
1033 [label="gini = 0.4\nsamples = 3\nvalue = [3, 1]"] ;
1032 -> 1033 ;
1034 [label="gini = 0.0\nsamples = 1\nvalue = [2, 0]"] ;
1032 -> 1034 ;
1035 [label="rain <= 816.5\ngini = 0.5\nsamples = 124\nvalue = [97, 89]"] ;
1013 -> 1035 ;
1036 [label="rain <= 810.0\ngini = 0.5\nsamples = 59\nvalue = [40, 50]"] ;
1035 -> 1036 ;
1037 [label="rain <= 798.5\ngini = 0.5\nsamples = 53\nvalue = [39, 40]"] ;
1036 -> 1037 ;
1038 [label="rain <= 788.5\ngini = 0.5\nsamples = 38\nvalue = [24, 33]"] ;
1037 -> 1038 ;
1039 [label="rain <= 782.5\ngini = 0.5\nsamples = 29\nvalue = [21, 20]"] ;
1038 -> 1039 ;
1040 [label="rain <= 761.5\ngini = 0.5\nsamples = 22\nvalue = [14, 19]"] ;
1039 -> 1040 ;
1041 [label="gini = 0.0\nsamples = 2\nvalue = [0, 3]"] ;
1040 -> 1041 ;
1042 [label="rain <= 767.5\ngini = 0.5\nsamples = 20\nvalue = [14, 16]"] ;
1040 -> 1042 ;
1043 [label="rain <= 764.0\ngini = 0.3\nsamples = 4\nvalue = [4, 1]"] ;
1042 -> 1043 ;
1044 [label="gini = 0.5\nsamples = 2\nvalue = [1, 1]"] ;
1043 -> 1044 ;
1045 [label="gini = 0.0\nsamples = 2\nvalue = [3, 0]"] ;
1043 -> 1045 ;
1046 [label="rain <= 778.0\ngini = 0.5\nsamples = 16\nvalue = [10, 15]"] ;
1042 -> 1046 ;
1047 [label="rain <= 775.5\ngini = 0.5\nsamples = 11\nvalue = [8, 9]"] ;
1046 -> 1047 ;
1048 [label="rain <= 771.5\ngini = 0.5\nsamples = 9\nvalue = [6, 9]"] ;
1047 -> 1048 ;
1049 [label="rain <= 770.5\ngini = 0.5\nsamples = 7\nvalue = [6, 6]"] ;
1048 -> 1049 ;
1050 [label="rain <= 769.5\ngini = 0.5\nsamples = 6\nvalue = [4, 6]"] ;
1049 -> 1050 ;
1051 [label="rain <= 768.5\ngini = 0.4\nsamples = 4\nvalue = [2, 4]"] ;
1050 -> 1051 ;
1052 [label="gini = 0.5\nsamples = 3\nvalue = [2, 3]"] ;
1051 -> 1052 ;
1053 [label="gini = 0.0\nsamples = 1\nvalue = [0, 1]"] ;
1051 -> 1053 ;
1054 [label="gini = 0.5\nsamples = 2\nvalue = [2, 2]"] ;
1050 -> 1054 ;
1055 [label="gini = 0.0\nsamples = 1\nvalue = [2, 0]"] ;
1049 -> 1055 ;
1056 [label="gini = 0.0\nsamples = 2\nvalue = [0, 3]"] ;
1048 -> 1056 ;
1057 [label="gini = 0.0\nsamples = 2\nvalue = [2, 0]"] ;
1047 -> 1057 ;
1058 [label="rain <= 779.5\ngini = 0.4\nsamples = 5\nvalue = [2, 6]"] ;
1046 -> 1058 ;
1059 [label="gini = 0.0\nsamples = 1\nvalue = [0, 3]"] ;
1058 -> 1059 ;
1060 [label="rain <= 780.5\ngini = 0.5\nsamples = 4\nvalue = [2, 3]"] ;
1058 -> 1060 ;
1061 [label="gini = 0.0\nsamples = 1\nvalue = [1, 0]"] ;
1060 -> 1061 ;
1062 [label="rain <= 781.5\ngini = 0.4\nsamples = 3\nvalue = [1, 3]"] ;
1060 -> 1062 ;
1063 [label="gini = 0.0\nsamples = 1\nvalue = [0, 1]"] ;
1062 -> 1063 ;
1064 [label="gini = 0.4\nsamples = 2\nvalue = [1, 2]"] ;
1062 -> 1064 ;
1065 [label="rain <= 785.5\ngini = 0.2\nsamples = 7\nvalue = [7, 1]"] ;
1039 -> 1065 ;
1066 [label="gini = 0.0\nsamples = 3\nvalue = [4, 0]"] ;
1065 -> 1066 ;
1067 [label="rain <= 786.5\ngini = 0.4\nsamples = 4\nvalue = [3, 1]"] ;
1065 -> 1067 ;
1068 [label="gini = 0.5\nsamples = 2\nvalue = [1, 1]"] ;
1067 -> 1068 ;
1069 [label="gini = 0.0\nsamples = 2\nvalue = [2, 0]"] ;
1067 -> 1069 ;
1070 [label="rain <= 791.0\ngini = 0.3\nsamples = 9\nvalue = [3, 13]"] ;
1038 -> 1070 ;
1071 [label="gini = 0.0\nsamples = 3\nvalue = [0, 8]"] ;
1070 -> 1071 ;
1072 [label="rain <= 796.5\ngini = 0.5\nsamples = 6\nvalue = [3, 5]"] ;
1070 -> 1072 ;
1073 [label="rain <= 793.0\ngini = 0.4\nsamples = 4\nvalue = [3, 1]"] ;
1072 -> 1073 ;
1074 [label="gini = 0.0\nsamples = 1\nvalue = [1, 0]"] ;
1073 -> 1074 ;
1075 [label="rain <= 794.5\ngini = 0.4\nsamples = 3\nvalue = [2, 1]"] ;
1073 -> 1075 ;
1076 [label="gini = 0.5\nsamples = 2\nvalue = [1, 1]"] ;
1075 -> 1076 ;
1077 [label="gini = 0.0\nsamples = 1\nvalue = [1, 0]"] ;
1075 -> 1077 ;
1078 [label="gini = 0.0\nsamples = 2\nvalue = [0, 4]"] ;
1072 -> 1078 ;
1079 [label="rain <= 805.5\ngini = 0.4\nsamples = 15\nvalue = [15, 7]"] ;
1037 -> 1079 ;
1080 [label="rain <= 803.5\ngini = 0.4\nsamples = 10\nvalue = [12, 4]"] ;
1079 -> 1080 ;
1081 [label="rain <= 801.5\ngini = 0.5\nsamples = 6\nvalue = [6, 4]"] ;
1080 -> 1081 ;
1082 [label="gini = 0.0\nsamples = 2\nvalue = [2, 0]"] ;
1081 -> 1082 ;
1083 [label="gini = 0.5\nsamples = 4\nvalue = [4, 4]"] ;
1081 -> 1083 ;
1084 [label="gini = 0.0\nsamples = 4\nvalue = [6, 0]"] ;
1080 -> 1084 ;
1085 [label="rain <= 807.5\ngini = 0.5\nsamples = 5\nvalue = [3, 3]"] ;
1079 -> 1085 ;
1086 [label="gini = 0.4\nsamples = 2\nvalue = [1, 2]"] ;
1085 -> 1086 ;
1087 [label="rain <= 808.5\ngini = 0.4\nsamples = 3\nvalue = [2, 1]"] ;
1085 -> 1087 ;
1088 [label="gini = 0.0\nsamples = 1\nvalue = [1, 0]"] ;
1087 -> 1088 ;
1089 [label="gini = 0.5\nsamples = 2\nvalue = [1, 1]"] ;
1087 -> 1089 ;
1090 [label="rain <= 812.5\ngini = 0.2\nsamples = 6\nvalue = [1, 10]"] ;
1036 -> 1090 ;
1091 [label="rain <= 811.5\ngini = 0.3\nsamples = 4\nvalue = [1, 5]"] ;
1090 -> 1091 ;
1092 [label="gini = 0.0\nsamples = 1\nvalue = [0, 2]"] ;
1091 -> 1092 ;
1093 [label="gini = 0.4\nsamples = 3\nvalue = [1, 3]"] ;
1091 -> 1093 ;
1094 [label="gini = 0.0\nsamples = 2\nvalue = [0, 5]"] ;
1090 -> 1094 ;
1095 [label="rain <= 826.5\ngini = 0.5\nsamples = 65\nvalue = [57, 39]"] ;
1035 -> 1095 ;
1096 [label="rain <= 820.5\ngini = 0.2\nsamples = 10\nvalue = [13, 2]"] ;
1095 -> 1096 ;
1097 [label="gini = 0.0\nsamples = 3\nvalue = [4, 0]"] ;
1096 -> 1097 ;
1098 [label="rain <= 825.0\ngini = 0.3\nsamples = 7\nvalue = [9, 2]"] ;
1096 -> 1098 ;
1099 [label="rain <= 823.5\ngini = 0.4\nsamples = 6\nvalue = [5, 2]"] ;
1098 -> 1099 ;
1100 [label="rain <= 822.0\ngini = 0.3\nsamples = 5\nvalue = [5, 1]"] ;
1099 -> 1100 ;
1101 [label="gini = 0.4\nsamples = 3\nvalue = [3, 1]"] ;
1100 -> 1101 ;
1102 [label="gini = 0.0\nsamples = 2\nvalue = [2, 0]"] ;
1100 -> 1102 ;
1103 [label="gini = 0.0\nsamples = 1\nvalue = [0, 1]"] ;
1099 -> 1103 ;
1104 [label="gini = 0.0\nsamples = 1\nvalue = [4, 0]"] ;
1098 -> 1104 ;
1105 [label="rain <= 827.5\ngini = 0.5\nsamples = 55\nvalue = [44, 37]"] ;
1095 -> 1105 ;
1106 [label="gini = 0.0\nsamples = 2\nvalue = [0, 2]"] ;
1105 -> 1106 ;
1107 [label="rain <= 831.5\ngini = 0.5\nsamples = 53\nvalue = [44, 35]"] ;
1105 -> 1107 ;
1108 [label="gini = 0.0\nsamples = 3\nvalue = [4, 0]"] ;
1107 -> 1108 ;
1109 [label="rain <= 847.0\ngini = 0.5\nsamples = 50\nvalue = [40, 35]"] ;
1107 -> 1109 ;
1110 [label="rain <= 840.5\ngini = 0.5\nsamples = 15\nvalue = [8, 12]"] ;
1109 -> 1110 ;
1111 [label="rain <= 833.0\ngini = 0.4\nsamples = 7\nvalue = [6, 3]"] ;
1110 -> 1111 ;
1112 [label="gini = 0.0\nsamples = 1\nvalue = [0, 1]"] ;
1111 -> 1112 ;
1113 [label="rain <= 838.5\ngini = 0.4\nsamples = 6\nvalue = [6, 2]"] ;
1111 -> 1113 ;
1114 [label="rain <= 834.5\ngini = 0.4\nsamples = 5\nvalue = [4, 2]"] ;
1113 -> 1114 ;
1115 [label="gini = 0.0\nsamples = 1\nvalue = [1, 0]"] ;
1114 -> 1115 ;
1116 [label="rain <= 836.0\ngini = 0.5\nsamples = 4\nvalue = [3, 2]"] ;
1114 -> 1116 ;
1117 [label="gini = 0.0\nsamples = 1\nvalue = [0, 1]"] ;
1116 -> 1117 ;
1118 [label="gini = 0.4\nsamples = 3\nvalue = [3, 1]"] ;
1116 -> 1118 ;
1119 [label="gini = 0.0\nsamples = 1\nvalue = [2, 0]"] ;
1113 -> 1119 ;
1120 [label="rain <= 842.5\ngini = 0.3\nsamples = 8\nvalue = [2, 9]"] ;
1110 -> 1120 ;
1121 [label="gini = 0.0\nsamples = 2\nvalue = [0, 5]"] ;
1120 -> 1121 ;
1122 [label="rain <= 843.5\ngini = 0.4\nsamples = 6\nvalue = [2, 4]"] ;
1120 -> 1122 ;
1123 [label="gini = 0.0\nsamples = 1\nvalue = [1, 0]"] ;
1122 -> 1123 ;
1124 [label="rain <= 845.0\ngini = 0.3\nsamples = 5\nvalue = [1, 4]"] ;
1122 -> 1124 ;
1125 [label="gini = 0.4\nsamples = 4\nvalue = [1, 3]"] ;
1124 -> 1125 ;
1126 [label="gini = 0.0\nsamples = 1\nvalue = [0, 1]"] ;
1124 -> 1126 ;
1127 [label="rain <= 867.0\ngini = 0.5\nsamples = 35\nvalue = [32, 23]"] ;
1109 -> 1127 ;
1128 [label="rain <= 855.5\ngini = 0.4\nsamples = 19\nvalue = [19, 8]"] ;
1127 -> 1128 ;
1129 [label="rain <= 851.0\ngini = 0.5\nsamples = 13\nvalue = [11, 8]"] ;
1128 -> 1129 ;
1130 [label="rain <= 848.5\ngini = 0.3\nsamples = 5\nvalue = [7, 2]"] ;
1129 -> 1130 ;
1131 [label="gini = 0.0\nsamples = 1\nvalue = [2, 0]"] ;
1130 -> 1131 ;
1132 [label="rain <= 849.5\ngini = 0.4\nsamples = 4\nvalue = [5, 2]"] ;
1130 -> 1132 ;
1133 [label="gini = 0.4\nsamples = 2\nvalue = [3, 1]"] ;
1132 -> 1133 ;
1134 [label="gini = 0.4\nsamples = 2\nvalue = [2, 1]"] ;
1132 -> 1134 ;
1135 [label="rain <= 852.5\ngini = 0.5\nsamples = 8\nvalue = [4, 6]"] ;
1129 -> 1135 ;
1136 [label="gini = 0.4\nsamples = 4\nvalue = [2, 4]"] ;
1135 -> 1136 ;
1137 [label="rain <= 854.0\ngini = 0.5\nsamples = 4\nvalue = [2, 2]"] ;
1135 -> 1137 ;
1138 [label="gini = 0.5\nsamples = 2\nvalue = [1, 1]"] ;
1137 -> 1138 ;
1139 [label="gini = 0.5\nsamples = 2\nvalue = [1, 1]"] ;
1137 -> 1139 ;
1140 [label="gini = 0.0\nsamples = 6\nvalue = [8, 0]"] ;
1128 -> 1140 ;
1141 [label="rain <= 872.5\ngini = 0.5\nsamples = 16\nvalue = [13, 15]"] ;
1127 -> 1141 ;
1142 [label="rain <= 868.5\ngini = 0.2\nsamples = 4\nvalue = [1, 7]"] ;
1141 -> 1142 ;
1143 [label="gini = 0.4\nsamples = 2\nvalue = [1, 2]"] ;
1142 -> 1143 ;
1144 [label="gini = 0.0\nsamples = 2\nvalue = [0, 5]"] ;
1142 -> 1144 ;
1145 [label="rain <= 877.5\ngini = 0.5\nsamples = 12\nvalue = [12, 8]"] ;
1141 -> 1145 ;
1146 [label="gini = 0.0\nsamples = 4\nvalue = [5, 0]"] ;
1145 -> 1146 ;
1147 [label="rain <= 878.5\ngini = 0.5\nsamples = 8\nvalue = [7, 8]"] ;
1145 -> 1147 ;
1148 [label="gini = 0.5\nsamples = 3\nvalue = [2, 3]"] ;
1147 -> 1148 ;
1149 [label="rain <= 880.0\ngini = 0.5\nsamples = 5\nvalue = [5, 5]"] ;
1147 -> 1149 ;
1150 [label="gini = 0.5\nsamples = 3\nvalue = [3, 3]"] ;
1149 -> 1150 ;
1151 [label="gini = 0.5\nsamples = 2\nvalue = [2, 2]"] ;
1149 -> 1151 ;
1152 [label="rain <= 887.5\ngini = 0.3\nsamples = 13\nvalue = [14, 4]"] ;
810 -> 1152 ;
1153 [label="gini = 0.0\nsamples = 4\nvalue = [5, 0]"] ;
1152 -> 1153 ;
1154 [label="rain <= 889.5\ngini = 0.4\nsamples = 9\nvalue = [9, 4]"] ;
1152 -> 1154 ;
1155 [label="gini = 0.0\nsamples = 2\nvalue = [0, 2]"] ;
1154 -> 1155 ;
1156 [label="rain <= 892.0\ngini = 0.3\nsamples = 7\nvalue = [9, 2]"] ;
1154 -> 1156 ;
1157 [label="gini = 0.0\nsamples = 3\nvalue = [4, 0]"] ;
1156 -> 1157 ;
1158 [label="rain <= 895.0\ngini = 0.4\nsamples = 4\nvalue = [5, 2]"] ;
1156 -> 1158 ;
1159 [label="rain <= 893.5\ngini = 0.5\nsamples = 3\nvalue = [2, 2]"] ;
1158 -> 1159 ;
1160 [label="gini = 0.4\nsamples = 2\nvalue = [2, 1]"] ;
1159 -> 1160 ;
1161 [label="gini = 0.0\nsamples = 1\nvalue = [0, 1]"] ;
1159 -> 1161 ;
1162 [label="gini = 0.0\nsamples = 1\nvalue = [3, 0]"] ;
1158 -> 1162 ;
1163 [label="rain <= 915.5\ngini = 0.5\nsamples = 432\nvalue = [292, 383]"] ;
807 -> 1163 ;
1164 [label="rain <= 913.5\ngini = 0.3\nsamples = 18\nvalue = [6, 21]"] ;
1163 -> 1164 ;
1165 [label="rain <= 912.0\ngini = 0.4\nsamples = 14\nvalue = [6, 15]"] ;
1164 -> 1165 ;
1166 [label="rain <= 901.5\ngini = 0.4\nsamples = 13\nvalue = [5, 15]"] ;
1165 -> 1166 ;
1167 [label="gini = 0.0\nsamples = 3\nvalue = [0, 4]"] ;
1166 -> 1167 ;
1168 [label="rain <= 907.5\ngini = 0.4\nsamples = 10\nvalue = [5, 11]"] ;
1166 -> 1168 ;
1169 [label="rain <= 906.5\ngini = 0.4\nsamples = 3\nvalue = [3, 1]"] ;
1168 -> 1169 ;
1170 [label="rain <= 905.0\ngini = 0.5\nsamples = 2\nvalue = [1, 1]"] ;
1169 -> 1170 ;
1171 [label="gini = 0.0\nsamples = 1\nvalue = [1, 0]"] ;
1170 -> 1171 ;
1172 [label="gini = 0.0\nsamples = 1\nvalue = [0, 1]"] ;
1170 -> 1172 ;
1173 [label="gini = 0.0\nsamples = 1\nvalue = [2, 0]"] ;
1169 -> 1173 ;
1174 [label="rain <= 909.0\ngini = 0.3\nsamples = 7\nvalue = [2, 10]"] ;
1168 -> 1174 ;
1175 [label="gini = 0.2\nsamples = 5\nvalue = [1, 9]"] ;
1174 -> 1175 ;
1176 [label="rain <= 910.5\ngini = 0.5\nsamples = 2\nvalue = [1, 1]"] ;
1174 -> 1176 ;
1177 [label="gini = 0.0\nsamples = 1\nvalue = [1, 0]"] ;
1176 -> 1177 ;
1178 [label="gini = 0.0\nsamples = 1\nvalue = [0, 1]"] ;
1176 -> 1178 ;
1179 [label="gini = 0.0\nsamples = 1\nvalue = [1, 0]"] ;
1165 -> 1179 ;
1180 [label="gini = 0.0\nsamples = 4\nvalue = [0, 6]"] ;
1164 -> 1180 ;
1181 [label="rain <= 1677.0\ngini = 0.5\nsamples = 414\nvalue = [286, 362]"] ;
1163 -> 1181 ;
1182 [label="rain <= 1609.5\ngini = 0.5\nsamples = 405\nvalue = [277, 359]"] ;
1181 -> 1182 ;
1183 [label="rain <= 1492.5\ngini = 0.5\nsamples = 383\nvalue = [270, 336]"] ;
1182 -> 1183 ;
1184 [label="rain <= 1312.5\ngini = 0.5\nsamples = 346\nvalue = [233, 313]"] ;
1183 -> 1184 ;
1185 [label="rain <= 1194.0\ngini = 0.5\nsamples = 271\nvalue = [198, 228]"] ;
1184 -> 1185 ;
1186 [label="rain <= 1048.0\ngini = 0.5\nsamples = 202\nvalue = [133, 181]"] ;
1185 -> 1186 ;
1187 [label="rain <= 972.5\ngini = 0.5\nsamples = 111\nvalue = [85, 88]"] ;
1186 -> 1187 ;
1188 [label="rain <= 967.5\ngini = 0.5\nsamples = 54\nvalue = [36, 51]"] ;
1187 -> 1188 ;
1189 [label="rain <= 960.0\ngini = 0.5\nsamples = 48\nvalue = [35, 38]"] ;
1188 -> 1189 ;
1190 [label="rain <= 956.5\ngini = 0.5\nsamples = 42\nvalue = [24, 38]"] ;
1189 -> 1190 ;
1191 [label="rain <= 951.5\ngini = 0.5\nsamples = 39\nvalue = [24, 32]"] ;
1190 -> 1191 ;
1192 [label="rain <= 917.5\ngini = 0.5\nsamples = 37\nvalue = [20, 32]"] ;
1191 -> 1192 ;
1193 [label="rain <= 916.5\ngini = 0.4\nsamples = 5\nvalue = [5, 2]"] ;
1192 -> 1193 ;
1194 [label="gini = 0.5\nsamples = 4\nvalue = [3, 2]"] ;
1193 -> 1194 ;
1195 [label="gini = 0.0\nsamples = 1\nvalue = [2, 0]"] ;
1193 -> 1195 ;
1196 [label="rain <= 937.5\ngini = 0.4\nsamples = 32\nvalue = [15, 30]"] ;
1192 -> 1196 ;
1197 [label="rain <= 929.0\ngini = 0.4\nsamples = 28\nvalue = [11, 26]"] ;
1196 -> 1197 ;
1198 [label="rain <= 927.5\ngini = 0.5\nsamples = 19\nvalue = [10, 15]"] ;
1197 -> 1198 ;
1199 [label="rain <= 920.5\ngini = 0.5\nsamples = 18\nvalue = [9, 15]"] ;
1198 -> 1199 ;
1200 [label="rain <= 918.5\ngini = 0.4\nsamples = 6\nvalue = [2, 5]"] ;
1199 -> 1200 ;
1201 [label="gini = 0.5\nsamples = 4\nvalue = [2, 3]"] ;
1200 -> 1201 ;
1202 [label="gini = 0.0\nsamples = 2\nvalue = [0, 2]"] ;
1200 -> 1202 ;
1203 [label="rain <= 925.5\ngini = 0.5\nsamples = 12\nvalue = [7, 10]"] ;
1199 -> 1203 ;
1204 [label="rain <= 922.0\ngini = 0.5\nsamples = 7\nvalue = [3, 5]"] ;
1203 -> 1204 ;
1205 [label="gini = 0.5\nsamples = 2\nvalue = [1, 1]"] ;
1204 -> 1205 ;
1206 [label="rain <= 924.0\ngini = 0.4\nsamples = 5\nvalue = [2, 4]"] ;
1204 -> 1206 ;
1207 [label="gini = 0.4\nsamples = 2\nvalue = [1, 2]"] ;
1206 -> 1207 ;
1208 [label="gini = 0.4\nsamples = 3\nvalue = [1, 2]"] ;
1206 -> 1208 ;
1209 [label="rain <= 926.5\ngini = 0.5\nsamples = 5\nvalue = [4, 5]"] ;
1203 -> 1209 ;
1210 [label="gini = 0.5\nsamples = 2\nvalue = [1, 1]"] ;
1209 -> 1210 ;
1211 [label="gini = 0.5\nsamples = 3\nvalue = [3, 4]"] ;
1209 -> 1211 ;
1212 [label="gini = 0.0\nsamples = 1\nvalue = [1, 0]"] ;
1198 -> 1212 ;
1213 [label="rain <= 932.0\ngini = 0.2\nsamples = 9\nvalue = [1, 11]"] ;
1197 -> 1213 ;
1214 [label="gini = 0.0\nsamples = 4\nvalue = [0, 6]"] ;
1213 -> 1214 ;
1215 [label="rain <= 934.0\ngini = 0.3\nsamples = 5\nvalue = [1, 5]"] ;
1213 -> 1215 ;
1216 [label="gini = 0.4\nsamples = 2\nvalue = [1, 2]"] ;
1215 -> 1216 ;
1217 [label="gini = 0.0\nsamples = 3\nvalue = [0, 3]"] ;
1215 -> 1217 ;
1218 [label="rain <= 940.0\ngini = 0.5\nsamples = 4\nvalue = [4, 4]"] ;
1196 -> 1218 ;
1219 [label="gini = 0.0\nsamples = 1\nvalue = [3, 0]"] ;
1218 -> 1219 ;
1220 [label="rain <= 944.0\ngini = 0.3\nsamples = 3\nvalue = [1, 4]"] ;
1218 -> 1220 ;
1221 [label="gini = 0.0\nsamples = 1\nvalue = [0, 3]"] ;
1220 -> 1221 ;
1222 [label="rain <= 947.0\ngini = 0.5\nsamples = 2\nvalue = [1, 1]"] ;
1220 -> 1222 ;
1223 [label="gini = 0.0\nsamples = 1\nvalue = [1, 0]"] ;
1222 -> 1223 ;
1224 [label="gini = 0.0\nsamples = 1\nvalue = [0, 1]"] ;
1222 -> 1224 ;
1225 [label="gini = 0.0\nsamples = 2\nvalue = [4, 0]"] ;
1191 -> 1225 ;
1226 [label="gini = 0.0\nsamples = 3\nvalue = [0, 6]"] ;
1190 -> 1226 ;
1227 [label="gini = 0.0\nsamples = 6\nvalue = [11, 0]"] ;
1189 -> 1227 ;
1228 [label="rain <= 969.0\ngini = 0.1\nsamples = 6\nvalue = [1, 13]"] ;
1188 -> 1228 ;
1229 [label="gini = 0.4\nsamples = 2\nvalue = [1, 3]"] ;
1228 -> 1229 ;
1230 [label="gini = 0.0\nsamples = 4\nvalue = [0, 10]"] ;
1228 -> 1230 ;
1231 [label="rain <= 997.5\ngini = 0.5\nsamples = 57\nvalue = [49, 37]"] ;
1187 -> 1231 ;
1232 [label="rain <= 989.5\ngini = 0.2\nsamples = 12\nvalue = [17, 2]"] ;
1231 -> 1232 ;
1233 [label="rain <= 986.5\ngini = 0.3\nsamples = 6\nvalue = [8, 2]"] ;
1232 -> 1233 ;
1234 [label="gini = 0.0\nsamples = 5\nvalue = [8, 0]"] ;
1233 -> 1234 ;
1235 [label="gini = 0.0\nsamples = 1\nvalue = [0, 2]"] ;
1233 -> 1235 ;
1236 [label="gini = 0.0\nsamples = 6\nvalue = [9, 0]"] ;
1232 -> 1236 ;
1237 [label="rain <= 1020.5\ngini = 0.5\nsamples = 45\nvalue = [32, 35]"] ;
1231 -> 1237 ;
1238 [label="rain <= 1018.5\ngini = 0.5\nsamples = 26\nvalue = [13, 25]"] ;
1237 -> 1238 ;
1239 [label="rain <= 1005.5\ngini = 0.5\nsamples = 20\nvalue = [13, 17]"] ;
1238 -> 1239 ;
1240 [label="rain <= 1001.5\ngini = 0.4\nsamples = 7\nvalue = [2, 6]"] ;
1239 -> 1240 ;
1241 [label="rain <= 998.5\ngini = 0.5\nsamples = 5\nvalue = [2, 3]"] ;
1240 -> 1241 ;
1242 [label="gini = 0.4\nsamples = 3\nvalue = [1, 2]"] ;
1241 -> 1242 ;
1243 [label="gini = 0.5\nsamples = 2\nvalue = [1, 1]"] ;
1241 -> 1243 ;
1244 [label="gini = 0.0\nsamples = 2\nvalue = [0, 3]"] ;
1240 -> 1244 ;
1245 [label="rain <= 1011.5\ngini = 0.5\nsamples = 13\nvalue = [11, 11]"] ;
1239 -> 1245 ;
1246 [label="gini = 0.0\nsamples = 2\nvalue = [5, 0]"] ;
1245 -> 1246 ;
1247 [label="rain <= 1014.5\ngini = 0.5\nsamples = 11\nvalue = [6, 11]"] ;
1245 -> 1247 ;
1248 [label="gini = 0.0\nsamples = 3\nvalue = [0, 6]"] ;
1247 -> 1248 ;
1249 [label="rain <= 1017.5\ngini = 0.5\nsamples = 8\nvalue = [6, 5]"] ;
1247 -> 1249 ;
1250 [label="rain <= 1016.0\ngini = 0.5\nsamples = 4\nvalue = [3, 3]"] ;
1249 -> 1250 ;
1251 [label="gini = 0.5\nsamples = 2\nvalue = [2, 2]"] ;
1250 -> 1251 ;
1252 [label="gini = 0.5\nsamples = 2\nvalue = [1, 1]"] ;
1250 -> 1252 ;
1253 [label="gini = 0.5\nsamples = 4\nvalue = [3, 2]"] ;
1249 -> 1253 ;
1254 [label="gini = 0.0\nsamples = 6\nvalue = [0, 8]"] ;
1238 -> 1254 ;
1255 [label="rain <= 1021.5\ngini = 0.5\nsamples = 19\nvalue = [19, 10]"] ;
1237 -> 1255 ;
1256 [label="gini = 0.0\nsamples = 1\nvalue = [2, 0]"] ;
1255 -> 1256 ;
1257 [label="rain <= 1025.0\ngini = 0.5\nsamples = 18\nvalue = [17, 10]"] ;
1255 -> 1257 ;
1258 [label="rain <= 1022.5\ngini = 0.5\nsamples = 4\nvalue = [4, 4]"] ;
1257 -> 1258 ;
1259 [label="gini = 0.5\nsamples = 2\nvalue = [3, 2]"] ;
1258 -> 1259 ;
1260 [label="gini = 0.4\nsamples = 2\nvalue = [1, 2]"] ;
1258 -> 1260 ;
1261 [label="rain <= 1041.5\ngini = 0.4\nsamples = 14\nvalue = [13, 6]"] ;
1257 -> 1261 ;
1262 [label="rain <= 1040.0\ngini = 0.4\nsamples = 8\nvalue = [10, 3]"] ;
1261 -> 1262 ;
1263 [label="rain <= 1037.0\ngini = 0.4\nsamples = 7\nvalue = [8, 3]"] ;
1262 -> 1263 ;
1264 [label="rain <= 1033.0\ngini = 0.3\nsamples = 6\nvalue = [8, 2]"] ;
1263 -> 1264 ;
1265 [label="rain <= 1029.5\ngini = 0.4\nsamples = 4\nvalue = [5, 2]"] ;
1264 -> 1265 ;
1266 [label="rain <= 1027.5\ngini = 0.3\nsamples = 3\nvalue = [5, 1]"] ;
1265 -> 1266 ;
1267 [label="gini = 0.4\nsamples = 2\nvalue = [3, 1]"] ;
1266 -> 1267 ;
1268 [label="gini = 0.0\nsamples = 1\nvalue = [2, 0]"] ;
1266 -> 1268 ;
1269 [label="gini = 0.0\nsamples = 1\nvalue = [0, 1]"] ;
1265 -> 1269 ;
1270 [label="gini = 0.0\nsamples = 2\nvalue = [3, 0]"] ;
1264 -> 1270 ;
1271 [label="gini = 0.0\nsamples = 1\nvalue = [0, 1]"] ;
1263 -> 1271 ;
1272 [label="gini = 0.0\nsamples = 1\nvalue = [2, 0]"] ;
1262 -> 1272 ;
1273 [label="rain <= 1042.5\ngini = 0.5\nsamples = 6\nvalue = [3, 3]"] ;
1261 -> 1273 ;
1274 [label="gini = 0.0\nsamples = 2\nvalue = [0, 2]"] ;
1273 -> 1274 ;
1275 [label="rain <= 1043.5\ngini = 0.4\nsamples = 4\nvalue = [3, 1]"] ;
1273 -> 1275 ;
1276 [label="gini = 0.0\nsamples = 2\nvalue = [2, 0]"] ;
1275 -> 1276 ;
1277 [label="gini = 0.5\nsamples = 2\nvalue = [1, 1]"] ;
1275 -> 1277 ;
1278 [label="rain <= 1060.0\ngini = 0.4\nsamples = 91\nvalue = [48, 93]"] ;
1186 -> 1278 ;
1279 [label="gini = 0.0\nsamples = 13\nvalue = [0, 18]"] ;
1278 -> 1279 ;
1280 [label="rain <= 1075.0\ngini = 0.5\nsamples = 78\nvalue = [48, 75]"] ;
